-0.025351860607343894 -0.006359682547861557 -0.0027699359064983706 -0.010726992342915673 -0.002657117514414408 0.005171627019918826 0.00691383688651713 -0.011759174317475137 -0.012471266633918886 -0.00023475114809267967 0.0018210911004544143 -0.0210051211935975 -0.018349454202342227 -0.006679432437697864 0.0030676816989761713 0.0034890269818231737 0.013684467184327467 0.006210353225041148 0.005548046150089489 0.001839236926776042 -0.022475450019704142 -0.011885866453238806 0.009251242971896952 0.009821996161993935 0.011210135297405872 0.004317668529217916 -0.009577075369550195 0.03541007366189543 0.005444091498200815 0.005430507771902027 0.025404313483791095 0.017216005783786292 0.017816425258105464 0.01037495016197513 0.0035524431083246 0.0037581991284141494 -0.005204706478542838 0.0012999236313423696 -0.026667972786460416 -0.021341240625711983 -0.01072062034900716 -0.0002549130135263873 0.0010202659090673798 0.012273424183423398 0.004813694496528956 -0.0026613808313063507 -0.006093206652641616 -0.009911474619912231 -0.004003669286845842 -0.008731836696058488 0.011766464361814924 0.015764275501893146 0.0050026254507446605 -0.0036340369881441353 0.02564235746699933 -0.0005131681243370685 0.0007978081064414339 0.01518281607241715 0.0062098349110429815 0.005276253938457497 0.0030190235567032664 -0.0010521884152624099 -0.0029794909306794393 0.008321306547170117 -0.004029854021863909 -0.011451619846297651 -0.00159390643896762 0.018039708582601253 0.022908843143299856 0.021362863656208427 0.016867826607220547 0.01117562005509747 0.0017046507837569494 -0.00018185929618576985 -0.002553737189305908 0.0068553939156461964 0.005654776969425074 0.01768781615506291 0.01723643541420956 0.005169390804101397 -0.0031722934171549222 -0.02179414390291714 -0.007128013532871546 -0.008051384265888932 -0.00874280902294082 -0.005813800084455689 0.0025828518574029747 0.001444879487509036 0.002572237241217976 -0.008864916524838652 0.016365408934561496 0.0029664103773189114 -0.004267080973188019 0.008737991653410118 0.032775579723152155 0.029646483552777297 0.029594663502864157 0.021722589462666385 0.016925255606143302 -0.013163130450872546 -0.01110988869365254 -0.0017942487250847284 0.019454099565528616 0.012576848566012247 0.011765584046436427 0.016230183042138017 0.0006121095064214547 -0.008783132556773269 -0.015299192067703254 -0.0019579830871930457 -0.00426774042122088 -0.002097777109261949 -0.002970527214096368 0.005048654118108994 0.0037977671860026474 0.0036391172041932212 -0.006887306377922344 0.02083830937363966 -0.017707154626058964 -0.012714183943326005 -0.0020520324755905752 0.0014969113381828269 -0.0036905243860311378 0.005951021296826914 0.009431741993765692 0.016791300124373666 -0.01073810664188958 -0.003961250769004678 0.002181066605653572 0.019581927840484473 0.01909063626631374 0.018830913449244622 0.01802670866328679 -0.0005996908546913263 -0.006600433489655413 0.01605645992584719 0.004355891529464832 0.003233903204600082 0.008234125022960809 0.035530056353098825 0.036879277783615286 0.015209121427335787 0.0019699404439962533 0.005802966300964379 0.013593485032737034 -0.018508214670831885 -0.013876129934139343 -0.004226337504344731 -0.0039009714992666103 -0.007648616011487546 0.00201600092824409 0.006598819109827984 0.012828494187336933 0.019969443556360298 -0.003118282001772877 0.0018845782130450075 0.002322589721400324 -0.00025132667379872435 -0.009364456599466577 0.00018272498938683298 0.010820103415382143 0.003829780405796659 0.005478673251922216 -0.00034431995507074346 -0.0003681927625233324 0.00327975445598796 0.024341946697010786 0.025226076354512506 0.018792721531726286 0.003208335055694406 0.001331589671519737 0.03103147045307875 0.007291640125324822 -0.011785182494721509 -0.007351476819076002 -0.015192492804653651 0.0025633439001284354 -0.0008549455566014403 -0.002556223597705948 0.0027030224884692965 0.03101105550857574 -0.001374069077119282 0.0033954967999558793 0.005031208119711335 0.002426778645733111 -0.008318086385857126 -0.001252236016328485 0.009612693363730546 0.0068166276338003685 0.004749377153966033 -0.0037445460262724726 -0.007849195042830225 -0.002121489759948164 0.0046235933905121795 0.0036489555572964396 -0.0006049870113494457 -0.0018049602421250533 -0.003381414808199698 0.04039744178536561 0.008748908588485153 -0.008405179194557303 -0.001947709815290797 -0.001652813377165842 0.010409805129935487 -0.0004226098519111816 -0.0039436105159773955 0.0035855690195135907 -0.0019581131728606343 -0.013875100628269493 -0.006260122471813764 -0.00406359475092764 0.008088253760954222 0.014819673027715455 -0.00516500766354168 -0.005033790637800329 -0.010988063431335323 0.013097342523379914 0.0002750450253267054 -0.0061966058415662845 0.002548496088649096 0.009598076165541779 0.011326124995166092 0.002083756948541622 0.0013545131049284493 -0.003293253821537301 0.03576466024153472 -0.007883842396923298 -0.0023524127401699443 0.0010158927990113207 0.001411740910427027 0.00524539229274256 0.004245108087483766 0.0031153346341182405 0.013492609693470119 0.016769688205398516 -0.006434338136028119 -0.0015409787652651205 0.0006180389115699109 0.011978058890419694 0.013078901243403544 -0.005599057041790104 -0.0015393787543365738 -0.004172478257950004 -0.01726999231005411 -0.0024344423694957883 0.0013408850401732475 0.011802312919199105 0.020242855893488 0.018705285496893233 0.0015653103803942485 0.0021319270057941304 -0.011653452343901527 -0.011434108014727735 -0.007681321853887821 -0.03303149520317129 -0.018805704798976905 0.007938752185320927 0.010721938833002181 0.010148342041721388 0.0004812999736370214 -0.014079606723535577 0.019189853491840315 -0.0021468732711187794 -0.0014366302024920216 0.014876489382619732 0.015719260009723755 0.015552903484074891 0.0057321032480226065 -0.0012715077231814011 -0.006151625870244626 0.016851644754209572 0.004790993740183174 -0.004535504749953 -0.004926637188203828 -0.009731508841024927 -0.015670516344241565 0.0015315136131365632 -0.012887077801316146 -0.010332132459528024 0.03254795678941759 0.003525307322157765 -0.0018578287346086627 -0.005770725341928925 -0.01775832824914715 -0.002296137550854604 0.0029584090469133395 -0.003464111838487852 0.003160149627320109 0.021475282308274092 -0.001874717993794885 -0.005294005626267891 0.009803399588748252 0.010075180414326127 0.008918038182973015 0.0017968897855720287 -0.0031031645003024265 -0.008048148824114091 0.0020127705878772986 -0.01164964913546236 -0.017975673800057903 -0.00874920102334581 0.013867519777676106 0.016575441047265285 0.017736177046773806 0.010670860421329397 0.002224383960841363 0.021615056806013735 -0.0030024610580979727 -0.011668454433160228 -0.008526361134429263 -0.023090867090378095 -0.012092472273768978 4.632528562670138e-05 -0.005830589094126851 -0.0026446297353304163 -0.004621864345193842 0.0013554477280143078 0.007458578722487893 -0.0018972790924817098 -0.018864938963306398 -0.008556709259805846 -0.011904183310574391 -0.0056798467951493115 0.0020701099334557954 0.0028412889198170025 -0.008104026376212176 -0.013506470772147058 -0.0021331709390208847 0.017201964174714895 0.013747065073362435 0.01552253762527406 0.009508569982547078 0.003431489357005225 -0.02153160215064335 -0.01581359029578942 -0.010752343362545467 -0.003781198020545683 -0.007927862979101315 -0.001515828588962185 0.006781613507684867 -0.003567609109399856 -0.013938926441125862 0.0007197943219879042 0.0026670007007681944 0.007150039430377067 -0.0028549226144537736 -0.01608208382431188 -0.006904527548147299 -0.008583742292533872 -0.00769156141928541 0.0029962064564550118 0.015746250917715816 0.03764913728919703 0.0284459731807448 0.025405808343478962 0.015610641268234951 -0.004241926091693959 -0.012174633930002815 -0.010815739990115926 -0.005098702753368975 -0.026494697705743284 -0.016207152636898238 -0.010355006099433286 -0.0016540043151278426 -0.005308541418601426 -0.0007659918199093979 0.005481965095564334 -0.005931497256297177 -0.016148474811619067 0.0009396635826999979 -0.010196445741313754 -0.00830475422627719 -0.006484562566137952 0.008917254256644958 0.00853361246565489 -0.004771976119108608 -0.007586465307337932 -0.008303522532072222 0.00516394850015362 0.03375091478056899 0.03619477162714002 0.029412806264236174 0.018729378638864716 -0.003621071644161036 -0.01570151510519423 -0.014709053068557607 -0.013838133402189734 -0.004741703916868487 0.0008124509391478048 0.007034061885858299 0.022143473706467114 0.022222028637638093 0.02946948511028055 0.03345075705721261 0.022460598967772645 0.01407101553021437 -0.005348569066333436 -0.013327385770636939 -0.010776396584174121 -0.009533693806750043 0.006722713276100388 0.007908392676805827 -0.0026398234610369663 -0.00632950921717309 -0.010108485265574028 0.01617167165745722 -0.003657465816969859 -0.016854213409918013 -0.009709942688421043 -0.012457182075195684 -0.011533026707570398 -0.01280360269500597 -0.013425399214885503 -0.0079736247271769 0.002548395798169481 -7.32728042722485e-05 0.005488893250344834 0.018686990817841722 0.018772395545332745 0.02822325054456755 0.03434067308612812 0.024637703958350268 0.019011472432038833 0.0069635777866841764 -0.007010794819290577 -0.006262457585793047 -0.011130483053514321 -0.005886903339201357 -0.004819760500264117 -0.012083008986413624 -0.01893233965366031 -0.008946041668292486 0.039578622397821756 0.007023916361042125 -0.007499872952158736 -0.0008738501197520503 -0.0013134946839631748 0.004642200914398215 -0.004895311261650474 -0.007036179136731463 0.0010927879968630522 -0.004885724006179959 -0.016363338480231835 -0.005887198898488235 -0.004257943952820344 0.0073503450466372786 0.011503847114920028 -0.006819480339580755 -0.006149974179451727 -0.01174275252250493 0.02705359418573228 0.005444717715258029 0.003935769266444303 -0.004691289163648684 0.006124971094386141 0.012787953601388239 0.002425489631756706 -0.00700594687818949 0.007152329119002321 0.004414019657370809 -0.010903885801981332 -0.006114526254602533 -0.011241746732234378 -0.010214114048755971 -0.000820898923279848 -0.006473827716587374 -0.007407640666218889 -0.004397213694163115 0.020556027364438442 -0.0069944362041275444 -0.003225697580882236 0.0005054268553722147 0.012023676442879624 0.013954551505021964 -0.0032589034852905027 -0.0010983396824544365 -0.00304206476574808 -0.016682947516155223 0.0014374934004641507 0.0033086497495809723 0.009476751971636182 0.019898143958827608 0.017300447109777874 0.0034495666325961476 0.004460692701765401 -0.009240138839309383 0.016694246988516494 -0.0013687332156542358 -0.00027217305931341454 -0.006598942178396838 -0.006747400249244985 0.0017922216958408347 -0.003929180245770174 -0.003955456088547914 0.007073527780893697 -0.008942621502989684 -0.0060309296617665825 0.00021633874465060675 0.015777420976243187 0.016256896589665518 0.020008905181486996 0.012817508844325552 -0.002038850314697912 0.007529743673344578 0.02056231531922536 0.006422508615494703 -0.003660484503978786 -0.002079281505569877 -0.005455768740629675 -0.013047559088612406 0.000856065298530796 -0.010754083073918794 -0.008002577848719748 0.027911352591187738 0.003748455949332529 -0.004670772814868983 -0.0002810485948767892 -0.009907358979936352 0.0005517137936836202 0.0011882328122162157 -0.006491089298176473 -0.0007244264874936173 0.010476437541848752 -0.005955491747491116 -0.0035779324466719965 -0.007864551720715842 -0.0010610117405399798 0.0010427138846653555 -0.0121039362829051 -0.007512952753336565 -0.01392724259224798 0.0024831830312816608 -0.009990166538830121 -0.02395971275189874 -0.009754759069584916 -0.007295108405530423 -0.003807030529404769 -0.003912195017695485 0.00465056475727276 0.00795826893189048 0.03505064143892696 0.006626188204348756 -0.004195805758683065 0.003099700504048497 -0.0020247452417847503 0.005973645004422207 0.003094841086436272 -0.003640459803979613 0.002949933108353512 0.0019521623628653785 0.00997646004031516 0.011973211012169412 0.007952364190021549 8.326204739591073e-05 0.004912962346246261 -0.004159188143923734 -0.002744131594020421 0.005673068649200429 0.010944814128132706 -0.006086170187637169 -0.016398316414088204 -0.0047866173872526206 -0.003448378948642101 -0.0028755337511483722 -0.00241791736688532 0.003606749164968466 0.0067167518745170525 -0.022121082423471973 -0.006162177991597386 0.004423791308299578 -0.0006805478580129785 0.00771885783870977 0.008053151468098768 0.002140647030695859 -0.006603361669056044 -0.014034082627925153 0.005213124914056641 0.00901298271044653 0.010302583298816219 0.00068833380480301 -0.008911407034543638 -0.002608281781040436 -0.004211824628989351 -0.00421173006578795 0.005849730987699558 0.01387941308911021 0.04026053220747293 0.03711040675329215 0.0298559876864653 0.02288660963767534 0.005393056056153884 -0.007980710986667937 -0.00955611565333727 -0.0050948832530928224 -0.02690148165784125 -0.006509195026852478 -0.00215661056830748 -0.0034494985811838806 0.0069127413281619005 0.003231800456496829 0.0011894197883916642 -0.009138874146390858 -0.013730385694787553 0.0156932954081866 0.00478969529925117 -0.020686234401646394 0.004406042319386539 -0.0022634523180755104 -0.02100881486870407 0.001303571741302749 0.018461482069462583 0.02418354005834073 0.005780739273576655 0.02958438785767749 0.03298706524998812 0.026964705255921498 0.017946094371305114 0.0005702065790304249 -0.009049773391474874 -0.01089351398080738 -0.00905962116281739 0.0028315176334513786 0.0026799691998324743 0.010088620382251823 0.023948391318358554 0.023725701439996184 0.021859293872191106 0.02726229059061933 0.018337178010086327 0.015963611387055356 0.005522643698491815 -0.00195758750462309 -0.01892618054193384 0.0047234459231893546 -4.9245088188290716e-05 -0.020129066797124586 -0.00406534359013876 0.009684551608761482 0.013390626025100594 -0.005554479079783108 0.000482545654450576 -0.001117395279292882 -0.0008144263568480227 0.0051019006250033775 0.004534125970348637 0.0013436208842121846 -0.010722968816837498 -0.013589488607950076 0.010758123434524565 0.0031176765333261053 0.011024038578787115 0.02413293795363488 0.02469672596796721 0.028873338302035114 0.03611366994799249 0.02748175483352936 0.024397297317799913 0.013528934378169597 -0.0014025614738831583 -0.001665794174582642 -0.004445567359302114 0.003217591542405824 0.003359258646227831 -0.010196938674966552 -0.019338797838639073 -0.003762623285952828 -0.00258512347039604 0.0035115502045137983 0.005893453131578784 0.0034640702709040194 0.010485270413034858 0.009442883026419102 0.005901304855104719 -0.012274345981001338 -0.012106722317803145 -0.010114322443347267 -0.00514993153323454 -0.004513289322295 -0.009759830538555751 -0.0034442603189392155 -0.010499032036536933 -0.009383075620473516 -0.005074136111488887 0.005532637716273213 0.035478665968042986 0.002668444514348836 0.00063983536323879 -0.003178711331453578 0.009665577058325776 0.017655274068279343 0.0010986470141843003 -0.009945158324654075 0.007310573607769995 -0.0021347294537466415 -0.011324807689854803 -0.00565616875518596 -0.005428108272829289 -0.0030719017296096784 0.0018687709827632992 -0.005424689193171279 -0.007673517539281586 -0.007884655349301899 0.006698790821948755 0.007858324097132092 0.0023993649916283786 -0.006919525290694532 0.0002457492460741324 -0.004428400633826662 -0.00448162255703683 -0.008952151722140572 0.012852055324918493 -0.0010592516099911706 -0.00013452200608123283 -0.008029877035396118 -0.009628840495760856 0.02735532099359707 0.01583959928196113 -0.017446461448152217 -0.02055714048785525 -0.01998622679605462 0.013073782322647123 -0.0017568965643705299 -0.0006882269135737229 -0.0029110215154796474 -0.00042064330457991343 0.0024473181350041268 -0.006481330414978941 -0.004102261061213293 0.005853293395111671 -0.002202563186244476 -0.0027103300519478774 -0.0036888007521763974 0.01206119347183859 0.014327909328188919 0.017598311612304258 0.011880942986983003 -0.003006121849289425 0.01115486420772888 0.010588968944704721 0.008658709952063965 -0.00541805534182921 -0.00810304043081523 0.031142520831695896 0.017722832101419714 -0.020957053840891707 -0.02264413357341586 -0.014486442838413733 -0.01254936915051883 -0.013366624578903039 -0.007049078231884914 -0.005782865044953617 -0.00479723198748277 0.015458596795816171 0.012990781440037404 0.005238675833455263 0.011043429868485284 0.014607436028587013 -0.005136150536714246 -0.001983569005826322 -0.0075422775445190045 -0.001139217849723268 0.0012310888519349579 -0.010503599731364839 -0.005283765175907821 -0.008377462611113502 0.010016452099128284 -0.003923592694033598 -0.019273333715297814 -0.008033906573806303 -0.006861738633128408 -0.006806028931722368 -0.003522957203031344 0.004429053365480733 0.010228214212243462 -0.0012051050978249688 -0.01688499171848273 -0.018121585444138208 -0.005334634343162739 -0.010016644298779447 0.006608371328171011 -0.004235360072435007 -0.015215253047317898 -0.007935135349644734 0.0008752549984209846 0.0014188935167584382 -0.004641257623007177 -0.002482545887348655 -0.000996918096561713 0.002531989956308111 -0.0192290169276928 -0.010911956302315246 4.223586802143842e-05 0.012218521308756803 0.00014816278613820994 -0.010199137821648281 -0.002710372686156915 0.000610904016194889 -0.0002871526688493398 -0.001469462790874704 0.00416734863053007 0.00861805375112638 -0.012019100531865824 0.0012391457946490621 0.002610518584524011 0.0011538019882658254 0.01215494197779777 0.008577457503765209 0.002637114074535148 -0.005017435114844025 -0.011392812152050428 0.006989937027514215 0.004957847259055949 -0.0022093545049880906 0.0021002037023061665 0.0033402996932340866 0.006062146805080725 -0.015519866367180224 -0.00919164733542075 0.001995655613254669 -0.01824409090353734 0.019403126780249795 0.03330634170743618 0.03454866641889144 0.00616361946178828 -0.007350436954875699 -0.010100604358988165 -0.01606931757124341 -0.017629756897810073 -0.00478974828109383 0.00446890224458965 0.004024992782470806 0.003524817415128013 0.014425203314883882 0.010787079173885812 0.007517518487886607 -0.002403412073478826 -0.003755165962410675 0.03139063823410085 0.015765026078772275 -0.011313868905484567 0.011362577999345432 0.004624742703869764 -0.010522775418580068 0.006885326800840224 0.025177829124854646 0.031387586547097904 -0.012992020413572617 0.018338301084914486 0.02893250147330271 0.03378319529338237 0.016310045024377908 -0.00014118679784926817 -0.0065628442310004306 -0.008861808054717597 -0.008717557503826965 -0.01765755106628658 -0.007131606050730677 -0.0018593796506271216 0.01414276882893175 0.012256115927348158 -0.01355651072709485 -0.00840969830194351 -0.004372900674282447 -0.01478375061583791 0.025184949971249274 0.01084348756587093 -0.010916444178426929 0.013402372931611176 0.006660887274248281 -0.009460418260239252 0.005206250588447182 0.02251873268658152 0.02907155828225334 0.013426369481239198 0.013897166274062239 0.010335612378056275 0.010802637924050921 0.01657424597562386 0.01317397464279795 0.012463736604830189 -5.330092135529506e-05 0.0002255773633765756 -0.025500773646966374 -0.007979552249402578 -0.0006067311889292474 0.01713335175687031 0.014162535333808502 -0.010705915243678662 -0.005589774903186177 -0.0014386770574961582 -0.01771046579401169 -0.007430904456046403 -0.012859481782418969 -0.005377803871285346 0.008051127865503223 0.0043254402629183085 0.004027990254430969 0.012969980187389853 8.088029340802116e-05 -0.01163644652476446 0.0012013876687355968 0.007150573993099889 0.008739763922128246 0.008569540060244988 0.013441913504401248 0.010738699284925398 0.009568532066296154 -0.0040057795621549225 -0.0040164880080068525 -0.0006579208940443982 -0.00288605860556754 -0.004237254657542336 -0.008855663194205533 -0.0018802474476706382 -0.006947879802350251 -0.009319826554241304 -0.0018268885356664036 0.011619166246967811 -0.010077884076887842 -0.01708839461536648 -0.006513519449023162 0.008138671614326987 0.004383498373572231 -0.0005156599103761554 0.008468561112371827 -0.00488434865669467 -0.01598999898034042 -0.01231345149039095 0.004892882194639181 0.002081120314106056 -0.0036395645607799516 -0.005638536438569445 0.007632539868811479 0.03389022609676076 0.03832395589031855 0.01911972400086607 0.0004104852624563847 -0.001500317153787135 -0.0036693592680051763 -0.009725575954760106 -9.362161063300109e-05 -0.0062213740220468956 -0.009908941974915784 -0.002510380388956024 0.013631039235263223 -0.009864489689115368 -0.0066666199656928386 -0.010929657261157365 -0.011567437722525721 0.025227633240927198 0.015937478281140068 -0.0169753200683459 -0.021074911610443354 -0.021361445042648784 -0.011410289146664369 0.007509864818802541 0.005414592900731416 -0.001333241762905335 -0.0037340696429681787 0.013248780400948146 0.04149767970688958 0.04626298206705369 0.01884820089359195 -0.031196116075801795 -0.011158674240493539 -0.007381867302237487 -0.005043149151327778 0.010582523283520079 0.0010481676887384738 -0.00808624328629834 -0.011295535694164072 -0.003965329145443316 -0.0027592023460205387 -0.0019316604735690164 -0.010538355682290954 -0.01088124746089015 0.03082727012553254 0.020351580299429385 -0.014355070123212082 -0.016217500034434763 -0.01824278563013052 -0.022912094075956967 -0.017590001366191373 -0.007039067462003903 -0.006040162873562637 -0.0061307598153267934 0.014465644915823046 0.012009914265213943 0.0022784733202664462 0.004858992457015092 -0.01555224068931318 -0.0008696324450125052 -0.0018028476474256944 -0.0028574154676854037 0.013272666454961182 0.002244532415988423 -0.009748446170551945 -0.008753865657861936 0.008142513649992595 -0.015208704389853256 -0.001996237853526283 -0.005191016925008896 -0.0016209987300122017 0.02610853214075509 0.025701355966484915 -0.014580097306406723 -0.00901638182040727 0.010700487070902145 0.005031835165317802 -0.010408726930604408 -0.012497184090607728 0.004145087601255945 0.0052694572908492 0.021170251296855454 0.004314502109535653 -0.008935853660109848 -0.002541678668092108 0.006976748486385705 0.006280901202260143 0.005062024319134998 0.008953096596316958 0.0157320619818718 0.01296860940227312 -0.011041754184593307 -0.0031768926136682384 0.006967500237454069 -0.009795022752366801 -0.011588945945857292 -0.009856240225389872 -0.02115681811073895 -0.02139921924460469 -0.0018615649052866855 0.0010289744538152096 -0.002597315860245583 -0.002064115428235091 -0.008139928509099628 0.007628819648865073 -0.0025616823504261686 -0.005489358107476921 -0.009693283257325429 -0.009863054059876876 0.0032514315045279176 0.0006218078999965762 -0.00888933431100743 0.01066190938473614 0.009591396430564983 0.0025633374078242793 0.00792230598351555 0.012026570507694744 0.012397303202203403 -0.008828403961120293 -0.0026468862391680814 0.007121620237523717 -0.018911127628020368 0.01639690725046255 0.03692138997066744 0.036013551675125675 0.020465739823002378 0.001743760690323429 -0.00589571385252985 -0.009874945360527776 -0.009608357448729569 -0.005561320709468786 0.002282630476621552 -0.008035345500518183 -0.007266903324474228 -0.014061603367501882 -0.013377362565332198 0.00019347400115600347 0.0016631920309420451 -0.0021776964308730436 0.017470986872800617 0.043325806973630324 -0.006353217634746559 -0.01437672812900151 -0.017984740250502014 -0.02642609519042997 -0.010704286319728125 0.00030356294637662144 0.0012810379744481054 -0.013628685451026643 0.01963854333142733 0.03691760204789441 0.04039913097060115 0.03261819998372018 0.009031760600591663 -0.0008581437359224357 -0.002405273695249371 -0.002462556338041563 -0.017261787582112595 -0.003567326070251798 0.0027659671180161084 0.0221643391860459 0.022734729125344237 -0.0021976101282273584 -0.001338394172370627 0.006108139703020621 -0.010232703638791418 0.019309928607046674 0.0446940839069292 -0.005653485187318146 -0.012156838655633998 -0.018355898752716617 -0.023123936477843134 -0.009112116982156467 3.3071647580528666e-05 -6.781440176042416e-05 -0.0040028622223618904 -0.021927393539784734 -0.015157074133222013 -0.022886416899495696 -0.014427510800490758 -0.008533461735696498 -0.0016545585739884718 -0.004515021301089495 -0.0049673413776440455 -0.01854727721890095 0.0031241212061637246 0.011896609974483545 0.03841876925290413 0.03647765517379616 0.008414868158291906 0.008159242694967676 0.01389153974708536 -0.005492204766214732 0.006891545975226824 -0.0037104858843874755 0.004347450502971016 0.018406152968322556 0.01717589067644677 0.022764935356842778 0.034728170726086846 0.020367400440652186 0.006628193266950662 -0.0018130831180828916 -0.01502632571439369 -0.01266262719505677 -0.023488483637639935 -0.01029416119641413 -0.004275567315601912 0.001974399468680819 0.00624820192710825 0.0005627012371689394 -0.020450190436047025 0.002966992882342199 -0.00953210396880006 -0.008692893768052259 -0.01253880235783405 -0.0021961818179039258 -0.0033092329655758645 -0.009668801424853154 -0.02076024095753874 -0.003901661511416654 -0.012415752082016538 -0.0055169124641313615 0.010955508141940773 0.008712056505030362 0.010595959604722824 0.018474786942107423 0.004782198894087061 -0.006409214274369957 -0.002191618584061363 0.014272660164718969 0.007046985822468657 0.0015744799837390556 0.002487452879434256 0.015685653473763425 0.04406492569226269 0.04675083297381933 0.03213658020397334 -0.02599054562201753 -0.0023865197687280653 -0.021287628974763006 -0.01449284406135984 -0.019076900473587826 -0.009370515549170995 -0.0058408725171876065 -0.009804105431387019 -0.02718762465399758 0.004275380700545908 -0.004070194519640195 0.0031910112005598045 -0.0014835972698330245 -0.01933984250994495 -0.019439353765860496 -0.003498255308712731 0.014539447116739136 0.05631465404862759 -0.011254763103454765 0.010115135136450761 0.004860620753379791 -0.0009081409515062688 -0.0025086360046357664 0.01310395645171939 0.039962639473960164 0.040646200539712025 0.023219062132557273 -0.028485905573098734 -0.0036719593164758414 0.0010822887269822624 -0.00030807593158998006 0.013721355761128772 0.000340397652389556 -0.006543676744573125 -0.008145560226851234 -0.006439978593052476 -0.002850543548559705 -0.009878922382280067 0.001739291786847133 -0.0027611565649022754 -0.019744103896053716 -0.019552828551572848 -0.005144151218536674 0.011838806964320395 0.05527184528485445 -0.031009748637862086 -0.005495781883890586 0.008319294635593343 0.001469580261851267 -0.0017446096770945296 -0.004163942298476341 -0.0032236335807469168 -0.003988364752287977 0.009414810798655204 -0.00942034610418276 0.008225720347524602 0.005603908918816968 -0.0023762896747399893 0.012239204469784649 -0.0012446248575042132 -0.00855278309343608 -0.004139194106098355 0.003613621817820035 -0.019253697635379655 -0.005865321232482148 -0.00465215702086795 -0.0011675184999040663 0.011944951179479583 0.015519906145338372 -0.015148411906593126 -0.007591774125036857 0.011536092816809965 -0.02411496365634996 0.0009740454579823805 0.00853467676646866 0.0021245104939165106 0.003542627922425513 -0.0022568129150009877 -0.0016095050598252912 0.002607415684592353 0.016401108243962084 -0.016452764183180434 0.0011674120704253616 0.007156385238689151 -0.0023792399899987583 0.018481653973854845 0.026594075654001337 -0.00549505271655751 -0.0093827197933335 -0.005714597901533547 -0.007929133324738472 -0.014074409422800313 -0.011719521398786552 -0.022859116297736553 -0.024919050302462716 -0.005364626046271678 -0.0004008659521265711 -0.002302085005138696 -0.003418916283661001 -0.012878955034237484 0.0013393056566388074 -0.004239567291409475 -0.009794618404163331 -0.013743872982293919 -0.009101579752865676 0.0026969039339891808 0.002156539438548682 -0.006132339134811687 0.002728722286400257 0.0028697629340574287 -0.01145777309802246 -0.0025474287126846934 0.009071772322501916 0.011163851817217171 0.002245519980724222 -0.004372108757872406 -0.007101827280197693 0.007627091677974402 0.024178387082582506 -0.009315145383142565 -0.008329358072422948 0.007636901521677269 0.012291585367217538 0.011781237660305692 0.01203857180801405 0.0049231610594225855 -0.006359539900832963 0.00706404845475261 -0.0034822550487028222 -0.008455305706668392 -0.016467480366933823 -0.010979905284502652 0.0018800672018707437 0.003261348979300716 -0.00017327664162529411 0.017362262481833157 0.043407186659446255 -0.006408482074611395 -0.016951841559963265 -0.02237122486021603 -0.028734664755234285 -0.012615593692101034 -0.0007098967518768869 0.002235677959320185 0.018338539713420796 0.01925359368326111 -0.007583910669044213 -0.005057597468506149 0.009022148114477557 0.012658543641784249 0.015294291042776808 0.013614688625858662 0.007072598708304101 -0.018611614548845985 0.01116056563548223 -0.0022732749018969985 -0.00327510696936604 0.006840128452833234 -0.0013588066983733302 0.00415762074663042 0.008661498597784326 -0.0003247752050906474 0.036432309587010145 0.06843882235538502 0.005566566088988932 -0.005058093768722261 -0.011859133465269294 -0.017248422377315525 -0.005406625947078638 0.005188466276336373 0.007262851267947298 -0.003127014061442935 -0.012180235906897761 -0.01010876255624784 -0.017577050439823404 -0.008953302762658604 -0.003108801756679967 0.005741207178220527 -0.0027372600729512336 0.0009980165578040681 -0.007416225544875834 0.020775756909357724 0.0031618570466500247 0.00286067139121509 0.009120456242691978 0.006584913646159753 0.01214169884246406 0.01727637913269652 0.01014554529259675 -0.014994569090826162 0.0015236732926017255 -0.007265852775965004 -0.020754508644640825 -0.02176002054229237 -0.01566987735908108 -0.0023785596738174174 0.00423203058161214 -0.005928925320869177 0.011526575633170059 0.0009315672696396604 -0.002047510351062563 -0.011553500803751681 0.0018799200472383695 0.008749104108649538 0.019938068397575847 0.023988811204282215 0.01692841486638541 -0.004514618751331201 0.021173838186964913 0.005944830758422426 0.0031742991342674476 0.0014386236308700175 0.01587605827724142 0.01291739320307987 0.005074740089832689 0.00010721443220862784 0.004294419575340687 0.015989976994100596 0.009036350047715077 -0.012159425383376813 -0.011247866565910326 -0.0037039396316952975 0.007982036116177937 0.011096267064132314 0.007396693226111053 -0.02563450393532133 -0.0018508392925740893 0.00556122669802841 0.002821907787973826 -0.0014008335209712494 -0.005469303602054624 0.0057118098141602175 0.0051584206606553225 -0.01201831454390909 -0.015602788495081576 0.004961323571433798 -0.019168369488850718 -0.010585858294639467 -0.015482077732190276 -0.0025150907063985557 -0.0020721981966178556 -0.006492000715215267 -0.01937498984479621 0.02110566356596746 0.005812453396086686 0.00991356906387006 0.004180593062821027 -0.013943803790213935 -0.01479861779405396 -0.000842236126567902 0.021329956819220775 0.07564096187805845 -0.03538711503314655 -0.017581913793149766 -0.012309515562753351 -0.005547319882128596 -0.011358072310054 -0.013903001341266793 -0.006298648834662787 -0.009959101326747212 -0.03139780763282351 0.015395733045612934 0.012296888108735941 0.01332532733419588 0.024484961407906826 0.02290322514863459 0.008344113310903139 0.004283711322343382 0.009928041409637154 0.03876178642837895 0.006558004704082753 -0.005544140634548065 0.0028013605034658117 -0.003723454435907097 -0.01937561548474548 -0.01804296425635403 -0.003140121025249103 0.01369765926477839 0.06094503211173619 -0.023325255529012684 -0.0035753169128368073 0.008797173540571912 0.002849007760020174 0.0019320691538164767 0.002105975363626185 -0.00024250193155951545 -0.004238566007624959 0.012662468433824061 -0.0009248041366383651 0.004658894552904912 0.006474525958875728 0.013685533048348398 0.009440382824924178 -0.00038360362996708354 -0.004736056964409499 -0.0004943450235796534 0.021003127731643038 -0.011062029252101337 0.0020380405170868253 0.010193475339320048 0.004945449741280406 0.011561351789484033 -0.004968821134558241 -0.016388918229963943 -0.004381199825777976 0.008911008668673183 -0.015360161447570499 0.0004938945604716248 0.009120667628720045 0.0005557721352596424 -5.1483555714365754e-05 -0.003347488515907228 -0.001822722941078876 0.0001447819192299908 0.01963651280454072 -0.015175884321803432 -0.0010844563356452142 0.004174120887042387 -0.003095956076402452 0.016533910350290584 0.020889802307398037 -0.006529642976062995 -0.009724312752635723 -0.005033549456354805 -0.0029623148824975652 0.0078005911454955175 0.01626711512502424 0.005894250654511403 0.006950989193082044 -0.001448471224733689 -0.010682056352060064 0.002422445354564825 0.020610784545632314 -0.040385713171391995 -0.006707882035729761 -0.0003012544412837795 0.0030004863021258097 0.020815712866594185 0.03061139970601133 -0.006568696191371168 -0.006495534483617989 -0.017176192064845067 0.005591118018076581 0.0048816877076318 -0.01360653536274535 -0.006941411170995289 -0.0013178302899514212 0.0037806006871439913 0.0009379122539099854 -0.00449524097863299 -0.006316984459748778 0.010850722692349787 0.01091890502083813 -0.012322730299968153 -0.01200017136085452 0.0015661768312157888 0.0059263915098485605 0.008139324692607367 0.007515675897350803 0.002263158500376476 0.00943968233541381 -0.007375077854465763 -0.005115629032013887 -0.00976958943074072 -0.009065161448275776 -0.005146006041666584 -0.0022009125826677692 0.0005559376185420796 0.004191511019787074 0.0062068606105647505 0.011514204686952207 -0.007704276607286226 -0.00764179472046972 -0.011033375788595336 -0.010831292376820085 0.009859359373405242 0.004940845165531773 -0.012160170943416485 0.02189900602841723 0.013631391298009827 -0.008235159314735944 -0.006160136289514357 0.003279662732414929 0.005859776607041549 0.010053529496865094 0.009682654377924092 0.005605293209702587 -0.013889047108034631 0.008559389679421804 -0.004630067418952978 -0.00518338881096978 0.0037982443722187867 -0.005355081273639678 0.002297918380996569 0.00787328936326765 0.001212127271782514 0.020869705236819625 0.01335316411448506 -0.006026365496565466 -0.00811352084715989 -0.012164824476905322 -0.010070739595687998 0.010190156235911395 0.005874369754030608 -0.0057577930252781205 0.0010294281129015054 0.03075487240577653 0.0016766992697812948 -0.0069231993215199865 -0.011447382066124157 -0.004784753455248824 0.00018556237200614172 -0.0062723779822647955 -0.019271582904187384 0.0014156722712850417 0.0275070134025661 0.0056490181709187215 0.0016726267257537852 0.008508870085718101 0.003769947983064609 0.009461524374935934 0.015085362114513091 0.009768007037659147 -0.0036431699252237135 0.006849199910613746 -0.0038833470009458377 -0.023626543364792814 -0.024413293395378788 -0.016357285134675933 -0.003713608669414406 0.0034634089943421675 -0.0002892560708910519 0.024950009338063763 0.04535798839751861 0.008263589896872614 -0.0033548146280401644 -0.008236547285184916 -0.0004234501362091667 0.011205829663677471 0.015626330438760577 0.008603744608164187 -0.026266193200199597 -0.0061261371655732064 -0.00488394442657606 -0.009379394231034326 0.00019859577332743267 0.005165272582805847 0.0022826165980978108 -0.000699231185670396 -0.02227129507323603 0.009393187051082136 0.020328433572505168 0.011773439375716236 -0.012202451650037032 -0.013614646755770125 -0.004024283507910335 0.008062277796860185 0.015014813061660812 0.017949049978406326 -0.03289117759957834 0.0034958403601360894 0.011466280944464256 0.004927211683827483 -0.004197212305612857 -0.007184942489274522 0.005680725685285695 0.008935610909627571 -0.008913140159175489 -0.019335035689592984 0.01010168262420936 0.011813093771281577 0.003969271413627546 0.014173223091468363 0.015376466263323478 0.013777232201960806 0.010312793292304086 -0.019685268477629702 -0.017494942142077488 -0.004216490352027909 0.005424268587138938 0.010563511899440502 0.019794858186084372 0.014948792180758223 0.015453798467239876 0.014398187508586957 0.025394654529905095 -0.029448390019431434 -0.012928849706614861 -0.011122779158634494 -0.005282133667686094 -0.012856142835567682 -0.01600539585955844 -0.006428187832894879 -0.0073699629784737715 -0.026376368517846742 0.013687677245981833 0.010866222368147943 0.009954785213973728 0.018156663331387653 0.018704791105350196 0.007012918289336439 0.004656589897564879 0.011246859123735034 0.04020593905583524 -0.031274291376631486 -0.022375508470646302 -0.007189112103044899 0.0015851951892048464 0.010139102289351202 0.0037165163410546867 0.0018023687025133964 0.002676936602000126 0.003952525545759328 -0.0009813281997207712 0.01793054901320458 0.00927204727645134 -0.0018867833286682798 -0.006565366951911613 -0.01058951707296341 0.0028838206270944645 0.02076453611342946 0.023991981956184027 0.003735193564449398 0.00741957559223575 0.007884366924271904 0.014995418579309973 0.010381572554638532 0.0014849654040943853 -0.00033751398355222367 0.0031889531393789593 0.02713881650389388 -0.008373658918860606 0.006843501177181594 0.013447172856788089 0.007350589376599758 0.013266054149911123 -0.0010566088839214951 -0.011163636636176734 -3.007778622236422e-06 0.01277817362772909 -0.0053764280856964265 0.012496666844005987 0.0013230852982029358 -0.005616216478782613 -0.01043434264646371 -0.01854961384552689 -0.005342184228505336 0.010181060771075202 0.007436256076555786 -0.011380084547856231 0.017267698405551087 0.02086347591204691 0.009859939268406035 0.0037786935227650618 -0.006770790754466509 -0.004158242745069429 0.0005904533041647628 -0.005132884774030061 -0.007468002375544753 0.013598531943077093 0.02101738449980613 0.0097478575466826 0.010531298761970474 0.0060076766545371 -0.004639558472797905 0.005875445371978458 0.021018042602954805 -0.04515434483885008 -0.01065592197593668 -0.003353002783163315 0.0028334034189741552 0.0268251400505258 0.03795622314053912 -0.0028090435845535633 -0.004628865570066356 -0.018481199103039157 0.0017288766106494306 0.02484862032516071 0.02678537046660028 0.009578364428767801 0.0032623463997005185 -0.006849277235264028 -0.007865597613804025 -0.0012824203333728925 -0.005221452859590154 -0.028845717857626546 0.0008422112291724209 0.001261841416452701 0.0012492817827299387 0.0015417543670075296 0.00860715394736985 0.008461538564406278 -0.0007229473335546466 -0.0013931327241673624 0.01393479421312893 -0.004489778324057489 -0.0038579037335606777 -0.010678935052073756 -0.011088321960551328 -0.0065376284899697715 0.0003799608826938264 0.00283470269017435 0.008291247335665589 0.038971228493522504 0.018075338773456334 -0.005076657135862826 -0.006022520237737196 -0.014046924951558994 -0.01541558697558495 0.011759212486182738 0.014111562372658374 0.0037000252007623143 -0.002306923887504608 0.0007986916758037537 -0.007260410803420655 -0.03051879116928414 0.008734077477182889 0.02362690371600341 -0.0018474814902196557 -0.006643860781050064 -0.014927080443816354 -0.012884617442682348 0.0016068269563049185 0.010437762540770005 0.004589347001247313 -0.006174809080313046 0.009435423344608028 0.00726555982866457 0.015478873830076092 0.0185565605878125 0.03808150118478786 0.018086461886768646 -0.0032672469093913414 -0.006131257079612774 -0.012049133294583845 -0.005874491323945862 0.015146531528854474 0.013601707706146455 0.006601323345329469 0.008476312182940359 0.03606724125112964 0.007715825994344946 -0.001378824499546124 -0.00709746089440965 -0.0038062417568061895 0.007701560954105826 0.0006225518719372297 -0.010723232712706051 0.0021389835800204055 0.007938496507463097 0.010835015075129522 0.004032677238377163 -0.0026846707997505055 0.007211393740079985 0.003776991507708831 0.012207052327320993 0.01682525091529339 -0.00024271409066649866 0.019351210858731614 -0.0003212431925298891 -0.006438887982133901 -0.018775835500706845 0.0055893066333364775 0.007552751722439103 -0.0005477180115483829 -0.00011202072887278675 0.025200723550424332 0.04436460906972028 0.01009402342537579 -0.002163135531771815 -0.008349264088547872 -0.002769296927515667 0.010560553267046857 0.009941479857131499 0.0044068130245869 -0.02075799874493182 -0.001814230937207531 -0.0007873493688153976 -0.0055058370361020775 -0.0012968436449334604 0.004942163469146679 0.0027402166390288448 0.0030695574253476175 -0.014279908037882361 0.02043671791518799 0.03166573332280161 0.006638412170903128 -0.006652066173735156 -0.018843428756193797 0.007801053574958758 0.011832838304069048 0.009860451072336147 0.01567044202083073 -0.02304694978929866 -0.014174380248443115 -0.007845984545607955 -0.006363355456990188 -0.004898973724690633 -0.00020447793296573613 5.7533123739074345e-05 0.002615858270175488 -0.008915232226653903 -0.012132894414981422 0.012183288813788409 0.0117171974145733 0.0036059719216236558 0.010160826675492523 0.010177907308571207 0.009576164017975793 0.012522414263338694 -0.010189274780761839 -0.010813150235409134 0.0010909979106324438 0.008866119887185022 0.013473750745561999 0.016864238069891815 0.009823486884361854 0.012801107078380523 0.012858919623674872 0.024668213839117818 -0.01878099397963601 -0.005404987066236587 -0.0005012769719732219 0.002401869391557206 0.007147625997614293 0.01082976579673351 0.00802655884112518 0.008697719485126034 -0.002548633988239465 -0.021767106503514527 -0.036364348924636865 -0.00855322303765843 0.008212008350515042 0.016299654063552285 0.014959587648696746 0.0023005496521802593 0.017242255689943226 0.01814589741364193 -0.020982216992291088 -0.014288083410275002 -0.0017799723531957679 0.005247664697839869 0.007839798159380847 -0.0043622563262947535 -0.0029574339765461267 0.003353403618345056 0.006752340814887463 -0.004580679151031539 0.014528901460269233 0.005455524411053774 -0.0026033478065112282 -0.010709046941462045 -0.013362747066902879 0.0005258232826896336 0.01611832257062064 0.017293346187366693 -0.04308173176408859 -0.04781001512168434 -0.014530747933800867 0.006429871131486507 0.011520361486499 0.0009367789747128505 -0.009755614014016055 0.0033015801951109627 0.001905739717351191 0.033918734754401485 0.01019439692883101 0.004945752784884538 0.00019672688420457884 0.0024998150768294754 -0.00791626693088051 -0.00507270612688167 0.015419173961251044 0.03338066549954415 -0.009886470827898959 0.011812157242421385 0.002830484334015776 -0.003572443707468876 -0.010252685074277462 -0.014221678717566893 -0.0030313795173422735 0.009881346913318679 0.007099669891157367 -0.012942784273387985 0.013690085424683923 0.021756157932160878 0.0101696466760198 0.0013570842250855075 -0.00572119170623933 -0.0013207596413445841 0.002876589810839984 -0.0008101409520463014 0.026833889007974225 0.003748530330880363 -0.0007371534679634091 -0.0031510489536022398 0.0015265593137574096 -0.009656592118529135 -0.007384139646703178 0.015713359956872255 0.028580244049669464 -0.01165566302683611 0.014981019234869431 0.008846514957912272 -0.002337040710233899 -0.0056747730682558525 -0.006585279184788189 -0.004666585961371373 -0.010243147460376219 -0.020622948514461042 -0.007328804095696986 0.023869846231538712 0.030162069983666343 0.015344970332061052 0.011268858923740667 0.006915987539287929 4.79267671300381e-05 0.004376442928075536 0.0032921756698454357 -0.026414506031739428 0.0015673756123022614 0.0020436560778630524 0.0014080740329332807 0.003688892087136353 0.007731349913458236 0.006022937787812691 0.0008103101878906283 -0.0008813201271139523 -0.010019999796815494 0.02057481934947274 0.015482811535688203 0.003998557007415903 0.002347295995387401 -0.0014270405209087524 -0.006235803428190819 -0.00805563638177477 -0.014304615986377604 -0.017685161444931735 0.0008280390279996985 0.0070763486562611866 0.014082947532072135 0.026328393815075422 0.013056188052766378 -0.0013913364593607547 -0.008833248108929596 -0.0075045525063506735 -0.008302796040200356 -0.004341667837378481 -0.011039565662257753 -0.02620833683930951 0.007655350077960976 0.023896785020268558 -0.004304461017135562 -0.006403352826328718 -0.015743275956561272 0.004675092550671006 0.002314299577987478 0.013333665075312293 0.010414269637642755 -1.240371040798962e-05 0.010241280506555817 0.01000653776087178 0.020855677327112236 0.023069686056521967 -0.0021033364943926682 -0.01122076485528262 -0.011753317792698174 -0.009946364030483597 -0.006402099199151976 0.007042905138181069 -0.009858755755967383 -0.010867006903699782 -0.01627342127113453 -0.0034661695165712604 0.0020171546903762494 -0.02918299674578485 -0.023029538109025416 0.0008334928399197569 0.011323060346608876 -0.004822836838801966 -0.010709448033911353 -0.01668229461629424 0.003961605852548051 0.006304959755550263 0.01326958806532114 0.00789473009633563 0.0002778545353069985 0.009732453832892679 0.0057306767252403735 0.015531474143396319 0.020452889960761077 0.009418242016982312 0.030910919719313402 0.006701342589941687 -0.001394053060020324 -0.01057483375180402 0.008942948527048857 0.010657105675477277 0.005982467160305999 0.006364241324005998 0.0072837657627881644 0.005685399710642151 -0.020032909913313853 -0.01828771935219676 0.0017802290482632176 0.011442906465641186 -0.00028406097415824587 -0.005675703130563198 -0.00568797772709142 -0.004747492811779204 -0.02245874951576987 -0.002648823365945161 -0.005639420079363954 0.0001947215103567778 0.003763676030561016 0.0025453028306675614 0.0007731264596438701 0.010171842332534922 0.01710145212243582 0.03635018794589164 0.01134368185397717 -0.0028588632466544596 -0.01638914968191647 0.008808953234099547 0.01163837393688511 0.010786897366097793 0.0153442516299625 -0.02010921702509898 -0.012022518775918277 -0.005626766404117071 -0.0009957908937314067 0.000599177677143434 0.0021690763915695258 0.002089993844005447 0.006319244360114681 -0.004291210383125925 0.01847979643378933 -0.0015674803300538668 0.004945820181532404 -0.0024406792353882487 0.002953620335763212 0.009452804357588267 0.007374518652786037 0.00908069859852095 0.02173554531096754 -0.007091816723766288 -0.03035721977855161 -0.017123160292722095 -0.017130334905164604 -0.017533225882550844 -0.00556457235017491 0.004419100055318405 -0.016608034849501067 -0.028998864961522867 -0.012296234480409993 -0.0009365399059898913 0.001233094806366066 0.007322709255367977 0.010060952933169602 0.013359197235912102 0.012452885213288483 0.013912800295336132 0.0026079776513060738 -0.016425444914040174 -0.02388380043841866 0.0016993300035473627 0.016339965700106387 0.023913390538282467 0.015314388812828822 0.0030785545178653264 0.01942217125588137 0.022336762757174503 0.01513266974439855 -0.018025894760083976 -0.011679289817293041 -0.011839191323031888 -0.009888203059711241 -0.0011295530280327245 0.007988421353697001 -0.011370194942027827 -0.017274003972459994 -0.0015210962281176016 -0.009882760851859951 0.0029185093115960906 0.002931376366860073 -0.016543794329078466 0.007046915698073034 0.01543284854268162 -0.0016472868345182856 0.01580540216300051 -0.038299949568478917 -0.03989086902126165 -0.006458990267680422 0.013872216207281914 0.01876899037986972 0.005753831564500296 -0.006302295213468468 0.006145509651216264 0.002535246213549537 0.037323074206999915 0.016928327142013394 0.009574313618130284 0.0035721572053921697 0.0017212537527421246 -0.00642366568640473 -0.0016027494713448465 0.017449789702589456 0.034908356849598726 -0.03145672455349252 -0.018346880632658113 -0.0035092388814546927 -0.0019762855709053377 -0.02152669483614623 -0.005702504854943777 0.005461758568622661 -0.011307883471896037 -0.004435816482055219 0.015188156797192666 0.027323303778920286 0.01392184246973588 0.011510391595748957 0.01415763536042942 -0.012490216461204427 -0.012784587988096311 -0.004150027435578181 0.0033110412687369153 0.02854083311858093 0.009051298570998454 0.0030908359982553665 -0.0014413944666283466 -0.0017922730870318544 -0.011283773409560768 -0.004748342057011721 0.017130020126152563 0.0291005214058307 -0.008128990535136014 0.01505828598062098 0.010270265060649738 -0.001844767417423965 -0.0020010279151402594 -0.005141848607754646 -0.003620393312406764 -0.00866221970955627 -0.013432193420517602 0.0077655760632365884 0.022662902753324794 0.01302188590441138 0.009435298016040204 0.008139470342065748 -0.016255942343049133 -0.015135431958814421 -0.006317782690644072 0.0004051752838472606 -0.025779858928548248 -0.005593808731886209 -0.0032781090503433367 0.004345912438609902 -0.002748972458607849 -0.009741360000859609 -0.009943976190407638 -0.013633275741642846 -0.018367096890058783 -0.0027412324404805636 0.02277990551795098 0.020429641973085815 0.009207528090622454 0.010119728455257928 0.008619881498693915 -0.0009811803860806196 -0.004244460500265123 -0.007602124737605173 -0.012963238246546558 0.0012502803597181484 0.008640357567334 0.015551115602393861 0.029085110370624258 0.02109633506462623 0.001971430738364442 -0.004454503019990189 -0.004002729168198963 -0.022912685703324533 1.4705983332550208e-05 0.003196308854362976 0.010176368250313763 0.006727361293786276 -0.0017695761412939988 -0.003324878369717751 -0.01369284240351916 -0.01837632692558177 -0.008385026290244887 -0.0017002411961643447 -0.0005786995768488948 0.002647876133247737 0.012731280720651779 0.010842872568547435 -0.0007220863084345922 -0.004444079968573423 -0.00021113578489946844 0.00024616660790675643 -0.012576621738245076 -0.012032788329968727 -0.006356658602086738 0.003910854168756445 0.01801693806418712 -0.004655775624280382 -0.008988033739740855 -0.014965283610276135 0.010366590091968872 0.007219383524499413 -0.019294931566879274 -0.015495068554036179 0.012489021195601233 0.020345758369367438 0.001885606414183167 -0.004006966888744963 -0.0066380348931227556 -0.021516530630791106 -0.0077927224043086215 0.0029382647324046663 -0.0018869552847447031 0.007149315031973536 0.0005716328562113101 -0.001756135515539285 -0.0022918977227620358 -0.011219242915786057 -0.042060072014776885 -0.02043418402395626 -0.006875251570004207 -0.0021283552338352556 0.02311387463683607 0.020538552509701522 1.730221718549839e-05 -0.005962204556813234 -0.027773051834795226 0.007274135724363393 0.006498981293745383 -0.023295887105943096 -0.01858288467666408 0.0052106215359195 0.02041218974520644 0.006362418912984001 0.00034709198351296107 0.0016484572820863613 0.009440269395382474 -0.014768055647220219 0.003039443077181381 0.0001890303623220493 0.004897015806418391 0.00711083432274687 0.00695735903530206 0.0054245957340253136 0.014082218460281749 -0.03320812450197526 -0.015023158156526873 -0.007485901214033347 -0.004325864277036065 0.015011776847057677 0.014287173694604357 2.1142445579820472e-06 -0.0009334748623172368 -0.013952537138088365 0.01759506270737864 -0.01769272559763612 -0.01360986018038023 -0.007415657445806752 0.0029726156299300192 -0.0008865374723713822 -0.004943031495592699 -1.7544590875666734e-05 0.026182969328606392 0.017328195570673464 -0.003455960774479825 0.005237159154342191 0.00023982166833487473 0.007131276732749278 0.013088503998492838 0.010233855444497385 0.011226031457876089 0.0195745324994863 -0.00032817638115028463 -0.026782500579005525 -0.015753936172858668 -0.017827022788333105 -0.015833180646590065 -0.003052869342908455 0.008881090813090705 -0.014817114705403811 -0.026567556741376952 0.030812260378912857 -0.009599048088743282 -0.010427932348128551 -0.006977057928513575 0.003064260165529834 0.003064778963526234 -0.0010625157491699973 0.002876126412983479 0.02913786323588095 0.009548473461665173 -0.007429741365899376 -0.01366107177548723 -0.013096506100801184 -0.02197988500801688 -0.019440506784675834 -0.006749402316484668 -0.006290017311132958 0.014144027569083742 0.01584307685553327 -0.015183766094788664 -0.01200723367065068 -0.013016126873077787 -0.010952059877314714 -0.0005967237706572051 0.009816387191516469 -0.010244704514519495 -0.017083525639323263 1.8317496256955567e-05 -0.0006134365382031901 0.009355122138365866 0.0041651782124027025 -0.018310599046563524 0.009250983798050151 0.02180229211270635 0.003921498273977993 0.02015720788115213 0.021999642831817767 0.0037311163495557928 -0.008263191972854658 -0.010239657436502245 -0.01913085817100606 -0.017960275537596215 -0.005248564065515883 -0.0019143310006799518 0.022836446239537653 0.04591133835236859 0.014825583417819168 -0.010687012555049542 -0.01488972066860805 -0.024612442163838903 -0.032599186668962964 -0.005387436568915115 0.007977514088502429 0.0527876640743742 -0.025203088784350715 -0.013231701976650844 -0.001497552263540597 -0.002044192145414478 -0.020851459681708127 -0.004725193657166507 0.008407285220683179 -0.007734820909515922 0.0019652410805826716 0.031402413362019356 0.031165503873384397 0.018444204674222763 0.016891812420366095 0.014905448037358182 -0.016061033327527795 -0.019991478429651415 -0.0021757012513956378 0.010028776706375787 0.016361750458771866 0.0021882310292231514 -0.012465098030405094 -0.01449122090587179 -0.026661530005923594 -0.038497532454780506 -0.012316885011415597 -0.003077782797880029 0.027839946569377376 0.041084298180632445 0.026766586879161863 -0.006227688618610984 -0.005713594818644754 -0.018471932230199696 -0.006445101237344776 0.007237744181892372 0.004841130380512759 0.002173037195324549 0.028351214054192365 0.033018992683292184 0.021520967083816043 0.018830731660729644 0.009400231591709482 -0.015124383548144854 -0.016143631344977705 -0.0005470158772360866 0.011381599236741568 -0.011458285244414272 0.0008901480406988316 0.0007949915141053751 0.009314226173490129 0.004419659124147614 -0.008347527610824556 -0.010879568656385013 -0.013416321973860671 -0.012288924556243886 0.03246416425507414 0.03136261817609017 -0.0032432187557590504 -0.005513333872636841 -0.017654641249151257 -0.006541356736137309 0.00250651746461868 -0.0032857424700396772 -0.003674293945454181 -0.016156399846222597 -0.01203872069887417 -0.0029683917372570565 -0.0073511207901553206 -0.008009152729645764 -0.0017185989722232203 0.005001320005451029 0.006795274626851708 -0.0028816196114813328 -0.016046073428589464 0.0057616006810669 0.004465185105371296 0.013877985798214821 0.015786365403189413 0.0007915126817899074 -0.0071349807016345915 -0.01372966597172491 -0.018908996151444268 -0.0022952644588240295 -0.0011836867207445563 -0.0008326125837324579 0.0011373128443541323 0.014740540038782411 0.011589564758642784 5.652576726587581e-06 -0.0037548449836086266 0.0010504034167471638 -0.013782555659523542 -0.015068230118581485 -0.002848919182388725 -0.006927854010123642 -0.0011943312611339693 0.003100781695085737 0.006958754404063894 0.007165876484637724 0.0040782004852741435 0.0006548268355971165 0.00703520215975281 -0.002329565548792891 -0.010265216581453032 -0.01009509932326058 -0.0006366020333593448 6.399313260372372e-05 0.004174755192027465 0.010380643551586894 -0.01758802558943382 -0.005327387700635101 0.00843012421582064 0.0038000142093784243 0.017713881982791366 0.014983353466130497 0.0015620065840059752 0.0001648815316393317 -0.005474197396704839 -0.02535715755868416 -0.011819657705857332 -0.006318562734567282 0.00022788745729049277 0.03343887142120626 0.029051804582553027 0.0017659269547492817 -0.0042467288196998115 -0.018503605353102255 -0.0018491340887982547 -0.00751489168270828 -0.009024645897659752 -0.012809500598801916 -0.005742027117138623 -0.0035471161545719463 -0.009577139497756054 -0.01154672722111598 -0.01717103708117224 -0.020692089401105354 -0.008077655944573055 -0.010566496363310673 -0.013350911210653162 -0.004183906633478381 -0.0069683678232268075 -0.009201611368423911 -0.008200206052203703 0.0007657554357789607 -0.030465167769092423 -0.013196977284549442 -0.013675009941233544 -0.00629867325096152 0.0198432701761595 0.018928777683009365 0.0016091209154666087 -0.00041184027519810054 -0.014796223627940192 0.023353756782748793 -0.014825065862111735 -0.013216525724448504 -0.004351337213889013 0.009005982896764216 -0.0022881371470727463 -0.005847900109919798 -0.00046509372911756794 0.033836579258406344 -0.020099760719944588 -0.0074292020276934476 -0.008636519949643942 -0.014350393784866012 -0.01180900989152452 -0.007547821606445793 -0.008660183703030117 -0.004009769485254483 0.0032516977718772353 0.043882501448587415 0.0007758627595436023 -0.013080479311137483 0.00411144993315781 0.003565740633821835 -0.008601918960682596 -0.01129400575892914 -0.00669430192632265 0.010607652701431032 0.020990335391812418 -0.014437141174740611 -0.014162559249694832 -0.009692750703392344 -0.0022748594752917406 -0.004527279705122652 -0.005939624195699769 -0.0017304812842641466 0.02395917748763595 0.00267438036555709 -0.011758307571974937 -0.016736596572981013 -0.01422759408347309 -0.02513788890126717 -0.02856584636488849 -0.009434494469281074 -0.007143776878909908 0.013065135881574272 0.03796502965852372 -0.0014913846571294417 -0.013044328132116551 -0.00035466431924534823 0.0035817699462422203 -0.005498166748235115 -0.013002253108388335 -0.008989141495769761 0.007239717461948622 0.03642535497208162 0.01730254916669486 0.006028786606039562 -0.002011543705279489 -0.003981553810185775 -0.00649955959109171 -0.007561484462033571 -0.006990379773528982 0.022882096520313807 0.0004496555064691073 -0.011520382556184629 -0.01762105529888091 -0.015128021314128279 -0.02365240579834315 -0.023901869210304245 -0.0090915323200305 -0.006955798505839645 0.009825172422828437 0.033337568821149355 0.007908270238268634 -0.013506800409126982 -0.016887115205319877 -0.031077347437806557 -0.04420902741618895 -0.010602094839005403 0.0014237222980479191 0.03506611727727278 0.03267682391677963 0.018326411626390766 0.008220331129784096 0.0015591903617599668 0.00404900872386923 -0.002506277559283554 -0.0064360121435130995 -0.0022378971790470758 0.02604488380639546 0.035053053908874796 0.02085706620242587 0.002259233020521916 -0.007255314855198576 0.004086259867530815 0.002423547866863366 0.0019425719542733688 0.00988202789275135 0.03728917048993255 0.01985708485750663 0.00454203647125253 -0.014434144793633735 -0.015796225099709457 -0.028939967373824683 -0.045204127109892564 -0.015738520275410818 -0.005547866390640326 0.026605787743685837 0.027454190781193162 0.025360158377580707 -0.006094809532281548 -0.007051571087624619 -0.01806558839754673 -0.007356314362474149 0.007729194370689116 0.0054150234949169014 -0.007983641838374005 0.020070318711440067 0.014360352726148074 0.0010267383062818997 -0.0035891487266877836 0.0026703494320683575 -0.006115569771124409 -0.0026059629209337536 0.002114912273422794 0.02417521024278123 -0.004282244209525521 0.014080414142767048 0.006391559574373543 0.0005374257748940973 0.018545399715347896 0.013595712515699738 -0.016414920439043083 -0.011945808077372248 0.006926883830541319 0.03705839006965191 0.03629104721255195 -0.0005171846792419813 -0.0037537860898384776 -0.013627312590673842 -0.0033613645746032135 0.0046375334902102544 0.00193707671685475 0.0013327617668617547 -0.02611309045606175 -0.013769235167685556 -0.001620420947341552 -0.005898681202214317 -0.0005807282657658818 0.003742011580856454 0.00747096466427293 0.008084586591690318 -0.004122789703952866 0.005068438355422639 0.021658689753157774 0.007943073119517016 0.002347954907359783 0.01955129986996763 0.014342865928412553 -0.015878727786424456 -0.010533057820210839 0.0123235331667223 -0.037336851792365025 -0.010796354184863174 0.0037855744468063644 0.005967669512050045 0.00967384482061095 0.005305831932332808 -0.007259151357127267 -0.0015021635129377367 -0.011868050111986599 -0.02044925180201581 -0.012295946231585392 -0.000521597109470267 -0.004953865820016435 0.004789587768829914 0.0037342974059504865 0.009805633273660342 0.011886316137433222 0.0017895900312070632 0.005800015267306268 0.0131080045859427 -0.0004672349147959922 -0.011007872614774669 -0.005060698421547209 0.003631294267699667 0.002576936961000796 0.00746883487260531 0.011063736015425233 -0.034698428434244574 -0.011894425722053532 0.007043039152472109 0.01276377714858467 0.019044301956345606 0.009515213623730269 -0.004195571235674902 -0.0006335869659571149 -0.007063516517621992 -0.01283814973266263 0.004302011794501245 0.011428405743452216 0.001732233678696348 0.012530876803352567 0.02685796945887503 0.008921652202905563 0.005929401900756425 -0.0035300610619515885 0.002300439202451969 -0.002981673395829764 -0.0017753781459874034 -0.005034112232178892 0.003211429097706015 0.007527152120054553 -0.0019410761139996896 -0.0034648947743558703 -0.01485496187186647 -0.02277098046503428 -0.008728316253501933 -0.006470262386012914 -0.005828702471611196 0.005872577382011926 0.0026500842995482547 -0.00115787947134565 -0.0006144529143404277 0.007017272064139069 -0.01124279025223065 -0.009702416595487774 -0.012979067316117365 -0.004088377008440622 0.019907801522461403 0.017134828542619863 0.009256011312652697 0.005681809808371463 0.0010252359915623166 -0.006374736485210371 -0.012373025509890752 -0.010104003173117267 -0.00918013410887562 0.005088610452212832 0.01629050726248649 0.010569594825055761 0.005003656750411177 0.0019953044294574503 -0.024291963160246483 -0.009064620152528116 -0.005449633857996858 -0.011968190042191207 -0.008118108679442015 -0.0025773425043632944 -0.0020295081885479014 4.7556137093602126e-05 0.006615082044314297 0.039641978988224566 0.006912581514557594 -0.007346771698067233 0.009218853038811693 0.007835029446714683 -0.0003264681782578617 -0.006256140436949916 -0.00661770410432454 0.01258512425088467 -0.016714353422464388 -0.009988875512702767 -0.005273849180707437 -0.009113775058691032 -0.0016898427679126748 0.009271952928680348 0.00226407170202263 0.004737876321733438 0.00047440641390878054 0.02038440800037582 -0.023360888277095697 -0.020306251498518738 -0.010666838219600912 0.009257174329991217 0.03044373436283316 0.017526003972642243 0.010790691042241077 0.014143344313441433 0.013074370922319603 -0.008561228098458053 -0.01461508549443376 -0.0029612437895654925 -0.0010802477659773886 -0.008717616070560822 -0.015459765579158293 -0.011825198660619771 -0.001536508783804819 0.024937019335746356 0.017315764276154093 0.00407945274721659 -0.0006052495323482724 -0.005874752328729596 -0.009995035630360484 -0.010247117096188453 -0.011389257878018222 0.017202162731327922 -0.0017154616560216295 -0.0339007683841265 -0.027044310351040858 -0.021999490379534935 -0.002937344043371542 0.021807653151060005 0.0071784577027851695 0.0013009462253668449 9.75574530373789e-05 0.042926405366597316 0.017607682191075977 -0.00021007053744784808 -0.006973939434033026 -0.014066925887013727 -0.014534215823507652 -0.004683031940253369 0.00844365997122528 0.04186191652226777 0.01226620508884211 0.010701699720508029 0.0016766573056218488 -0.0026647107511435977 -0.006788216538009007 -0.012435307369017977 -0.011719060800187104 -0.008862410507717196 0.013143472273618466 0.022917857283446974 0.016952503788174235 -0.0013658050861529367 -0.012504827798444678 -0.00936227230515447 -0.006124770018236308 -0.0024429507028600654 0.0025831998080408825 0.023458122072695185 0.038927855429927015 0.01673051833400409 -0.0012707812112624328 -0.008732825417368922 -0.013163869589556985 -0.013002110314244876 -0.005574672584961769 0.010117483390713305 0.04274335065392349 0.039822920667462125 0.03343936956518061 -0.000620494519370319 -0.005726759409913861 -0.03285767255293856 -0.03724886743684433 -0.009905065474299255 0.014779116986616965 0.03252761532543882 0.030234833313618408 0.020409501237705963 0.002521203695284957 -0.005516873277149403 -0.006307762844925251 -0.007263636592976651 -0.0005916349207183078 0.006591765621161671 0.031144473971457323 -0.015672074529926278 0.007477793831084615 0.00967552723893244 0.0016311486084201402 0.010923536162969982 0.008734187046145304 -0.015409114418838916 -0.012488655997083712 0.0006685146153406333 0.0393808930668168 0.03900922842281548 0.0006760041700574499 -0.005960858816890252 -0.03039394923532515 -0.03630352183399706 -0.008541507687193025 0.017639390605295513 0.03242033992605446 0.0029215531260940184 -0.004777360352573352 -0.015162843814946092 0.0012796463618802221 0.016742354527945626 0.015506022580833292 -0.0022591098395175514 -0.0025377783931972583 -0.006096926838981808 0.00015608749990988352 0.017578093534730024 0.016282991881305067 0.0032072087930938007 0.014908775688537922 0.01266581939886923 -0.014126707215220845 -0.007291765654620729 0.012649680105554697 -0.04798166489135065 -0.014226482015022163 0.009437378352454158 0.011839164837922028 0.010165315688318568 0.009639660220884463 -0.001075768850249557 0.0029407135355764037 -0.012134391147508052 0.015909932004534864 0.0008184855310322588 -0.007809851926369696 0.007113983234687754 0.01467340857799262 0.015175153552036651 0.0010190938456304827 -0.003043875083676178 -0.0006175364416436424 -0.003319933539039682 -0.0029112300200235287 0.0012728346796780157 -0.002788243107685742 0.02269769166075774 0.012337231703021888 -0.016273173412375375 -0.009818653452980127 -0.003398756603432071 -0.05106754477946209 -0.02273657609285792 0.00739364864714543 0.013710247912650471 0.011796492222038126 0.007210591778548509 -0.0010562138659149507 3.966552542937767e-05 -0.012327884970023111 0.0019865444509396084 0.010661382864452035 0.01199913903378554 -0.000510334633484307 0.009797205612487762 0.016980636419830244 0.005512645372930427 0.005344525436829425 -0.003763857693442281 0.00750338644078348 -0.008239518675321194 -0.005499817696349592 -0.007703931151304 0.019139056284145424 0.010757390978134634 -0.020996721731651624 -0.01068573726187797 -0.0017402821095416012 -0.020238025499364473 0.00550727099012106 0.005554502299102624 -0.00019110423472310303 0.013410557510181312 0.019052829558840613 -0.0029793267053916947 -0.0045883124733089925 -0.0026885979078852904 -0.01908775320351401 -0.008295956680084647 -0.008194517147379378 -0.0013533530520140748 0.014647783512515155 0.011793312191782802 0.010092267260381507 0.00619865779431635 -0.0015260530166970987 -0.010038142686323583 -0.015019471848637332 -0.008140661108460033 -0.009302376086846201 0.006346669874781642 0.0059765657304620915 -0.0016391383968543372 -0.0035309784268632953 -0.000581203782670852 -0.008499738120408065 -0.005867445960722808 -0.007492572757244185 -0.009907418463068116 -0.010516823483855416 0.00878691413627714 0.008878487328568543 -0.00012198796814775407 -0.0048691410796017735 -0.02909480322514443 -0.03333123066845865 -0.002636892757797579 0.004673290205503859 0.028418020840463982 0.03183295283698034 0.0064383811173110836 -0.01212999279764836 -0.014977162995871016 -0.026387555433991093 -0.015842143163202774 -0.006669516452692536 -0.012592641044723882 -0.006016037455550773 -0.0022386608939331783 -0.003308419262178185 0.003407474753866779 -0.000872048485268637 0.0019194746033098723 -0.03610820902599193 -0.026278476407517688 -0.01362694982929339 0.0013775967886445395 0.028290780293301582 0.02051092167661219 0.009279356624475144 0.0005942826769814725 -0.03707525733109676 -0.0281099598520129 -0.002402843132358637 -0.002131365392226087 0.015519690020030624 0.02119009338394231 6.64002778929221e-05 -0.01319531616224664 -0.018938393770946995 0.001116860808374774 0.005969629387415761 0.0072164709573922 0.008814925180947349 0.02218535643995195 0.022311984046693798 0.006279007896895491 0.009022945597843831 -0.006747105998090549 -0.014669884161838866 -0.04090853493673107 -0.029856141362929148 -0.023009291015099236 -0.009622371276316611 0.015150200495402052 0.0018035874934124979 -0.005362241863714624 -0.010688394928269927 0.029053596869958734 0.006728950810022844 -0.0025522548205757227 -0.007582212752965006 -0.014162940468247214 -0.018349218316932252 -0.007309171104137745 0.0049594962487763995 0.038747618818215035 -0.0055943121703406155 -0.004752383476644882 -0.003349303274139177 -0.010702532370018865 0.006612760737496276 0.009081266917943715 -0.006494725347598095 -0.002596260629104448 -0.009136900531528658 0.030031103098258436 0.006354600700092546 -0.00023811839863983626 -0.005341289894261959 0.0030938859739161806 0.004405205796617118 0.006453233542953603 0.010413683851289605 0.01829881249173178 0.021557729377118227 0.0031339931734255784 -0.006880035290334407 -0.012219093614210844 -0.01664363282199574 -0.018202522160453614 -0.008063298667223873 0.007946736119956919 0.03677645854991566 0.02620654918253452 0.026967318610202146 -0.004128796311324136 -0.010556529387978922 -0.03726333639233842 -0.04063749229821176 -0.011639540163955766 0.013106992188241469 0.028114504159472458 0.026059372035074257 0.008009397888557188 -5.269197017358784e-05 -0.0027084834574443804 0.007883840429512425 0.003569325922202594 0.0016562111520576597 0.007829485026119633 0.01511428591239937 0.031917842747542856 0.03197420590072364 0.011561537674258 0.000994955325422174 -0.02008571186996053 -0.002828199167473274 0.007566927537523575 0.013895518957882875 0.007687371738435382 0.030235217706881524 0.030552496117156602 -0.004241026946559911 -0.01199191666806217 -0.03692352696927137 -0.039469930132281464 -0.00970418288843024 0.01583742726275689 0.031739950470362224 -5.281636230224963e-06 -0.012073344712214629 -0.020836362342885245 -0.004553620207300274 0.004719150182102009 0.0036438468528642194 -0.008112361963953976 -0.008609680785764637 -0.010323198581240018 0.03770007493603304 0.03948741819588602 0.015118092622653928 0.011845440597457168 -0.006259408700975594 0.0032030969704097897 0.00979342255849592 0.01487910110710852 0.010872352413628958 -0.01909806205818855 -0.0007763264689027514 0.0021221918163921724 -0.00471373286655547 -0.009998663547149865 0.023274118455757203 0.00393089001326552 0.007413986834734101 0.003235782556120446 0.013106111014531803 -0.003569860052223855 -0.011568462395644914 0.0028582055576141852 0.006488147070159834 0.006613045398359339 -0.0008675416114519532 -0.005950270796703987 -0.0015328993467673031 -0.008274784177448428 -0.0077307597018894635 -0.005138095563545985 -0.008489092280563592 0.013079862126526478 0.010200642985825964 -0.017534850450192995 -0.012542970407882782 -0.006692991065660094 -0.010563278462635115 0.004002042328970882 0.010438670889036356 0.005402465718930695 -0.0016367551811138207 0.027637734162378098 0.009216077043257049 0.01035041199171521 0.007249096985093609 -0.01386384991478422 -0.0027670732140589174 -0.004878743025463572 0.0013327184311615259 -0.00379752451676742 0.03776261625398801 0.014220142170377434 0.0005717625308592348 -0.00028737404300080904 0.006535842533689445 -0.008481074467514432 -0.009447659809105443 -0.015898891859014108 0.012878789338984916 0.003138927168267118 -0.02347897737010853 -0.015224594078916494 -0.004821035470435759 -0.021613096386720678 0.002921355468873595 0.0022343958760179077 -9.119994578263638e-06 0.012653902659299715 0.01576330732047402 -0.006398964710905302 -0.006040038286470948 -0.003719838383558954 -0.011655947266067475 -0.005437034735630344 -0.00639161362450792 -0.0002832579088025951 -0.005777507706399903 0.03591515993245743 0.011608414278483217 -2.7067373757749336e-05 0.0013155489679070255 -0.00723086286623812 -0.007308392511298318 -0.010035449162926946 -0.005684260916107515 -0.0018667788463221312 0.02942437743502404 -0.0011039283063107473 0.0058495669144751185 0.0012383637264031788 -0.006368295127067414 -0.006419816555054124 -0.009854436851286414 -0.01340663951789361 -0.01295170146932478 0.003304532088815087 0.008607405041870282 0.0034100028436230756 -0.0019902476958435452 -0.034343369173589135 -0.0322777498250219 0.0005394220660976977 0.0038513608208229637 0.026578203750540322 0.029795328989181045 0.002594021494091835 -0.013738107795350243 -0.01366521682176331 -0.006029447362960311 -0.006551218423310702 0.002513706905683762 -0.0014594943178560004 0.01692518779852476 0.03909660425553863 0.0019249156048636148 0.003559957255434459 0.0004713609962014708 0.0026366974364773663 0.0015086013708435788 -0.004152888556711481 -0.010653218333161822 0.012498438697125818 0.040035783705648205 0.0202230591200351 -0.007024039393038387 -0.02130159192346845 -0.043776959890553524 -0.033925015705918896 -0.003984354088505847 -0.002324944719748082 0.01254782534128827 0.01635932106349923 -0.0018857887039874747 -0.015753431845837135 -0.018695305185293845 -0.002108398805162585 0.002089919018453094 0.006730375085372236 0.01025749633891804 0.026754539000925354 0.01590070010990554 0.0054422989026024155 0.009144725653662325 -0.008713065691006447 -0.014148104860506565 -0.010956312794798853 -0.015477886638843932 -0.012334162333561743 0.010734195664157927 0.029884468908116704 0.010225691421921994 -0.013014989470424145 -0.019828320935453444 -0.02970250982480123 0.004708119053556817 0.005042468538507795 -0.007914268802802526 0.027901427497163712 0.03522981508130018 0.01670508039333443 0.0047153851312042114 -0.01783030807083777 -0.014347624951331055 -0.008478487932142415 -0.005005848828343795 -0.01327577676593288 0.004166267854138958 -0.002767450555568495 -0.00717037031628617 -0.006291483224721272 -0.019923526825287752 0.022438629983273724 0.003762620604745519 -0.00277106053413801 -0.006958363413347591 0.009776562052347015 0.002433571751865849 0.004812412471978033 0.009934024807659432 0.014169739538261363 -0.03242708159447177 -0.0034860225038571115 -0.007754093653116594 -0.021888730359058885 0.006059365481324116 0.017197713677717816 0.003945114655303077 -0.008866021156077156 -0.02893168291047214 0.005572502437856697 0.010249469085477601 0.005076957524334073 0.00027388627742213137 0.02326066790150008 0.027088146155137348 0.011646659639553254 0.009363189077909239 0.007188115954901151 0.012492286927477768 0.000828497642313345 -0.005914414392986524 -0.009692823354453907 0.010549523085130177 0.003257022716713772 -0.0017211105666811819 0.004214875590667962 0.0071633298138447255 0.024179068089866265 0.02692141983974926 0.0017656181131340412 -0.004494770839524429 -0.02158791866630362 -0.003013309712445261 0.004726991138461696 0.011565920204657455 0.0014964325933238959 0.000968685361855721 0.008210112586666839 0.0019370792475789595 -0.0002746143540149925 0.022392225445780033 0.024500407260961365 0.0061498185412151235 0.0063296733740408236 0.004034563221268123 -0.006347154210958269 -0.0030460372515772162 -0.00040517635772884376 0.008421274566164852 0.04092322416017429 0.016440295511417763 0.007857777046902315 0.007825758270277525 -0.018486944828228283 0.04025625124078709 0.03493602473650018 0.0045506324809067395 0.006508384633290369 -0.008951432354471848 0.0026675770549445766 0.010702554823640078 0.01978849914405904 0.014766060266232433 -0.023377756325245896 -0.008214314183199466 -0.0046063760468808826 -0.00850733330041941 -0.005445411002409379 0.022997081692705066 0.0009185275954691034 0.005984575289941733 0.0008739521791457286 -0.0013629192638694061 0.00043159096389369943 0.004555187751166626 0.0192179183388043 0.0538309827110374 0.019848353992011108 0.010621179144680738 0.010489636135839125 -0.014872036765008898 -0.03058702174649349 -0.016866657702611632 -0.00673009957729704 0.003157735625111435 0.0002495182838297017 -0.00939167447655099 -0.008145672157288784 -0.012649628513051707 -0.00803104910323164 -0.013886105202720706 0.00159369071537691 0.007187753623998509 0.0036527298325260667 0.007340323480537657 0.03731386300718066 0.01276273819952725 0.014145631567861642 0.00796654099959083 -0.01661077038062809 -0.01099185538361575 -0.012684861480107766 -0.0019328243307167774 -0.0017045663822240565 0.04683296331053455 0.02217758757137592 0.0019216714559808841 -0.0013117064234232007 -0.0327788785437282 -0.011683906525029552 0.0051064057316985816 0.025632585078730036 0.0235149855574069 0.005053311925146151 0.003947322076575004 -0.005941557051984363 0.000671733628605718 -0.02452486859825798 -0.007698267724014353 -0.0014618275138774622 -0.008698946450093394 -0.0032637422322327444 0.008929584129671375 0.012198323011101962 -0.007098493816806124 -0.020095595516853512 -0.014725434830267397 -0.008896701516319402 -0.00845129733450458 0.0035271489188512762 0.0029986794873696565 0.04395203082558454 0.0142071564599074 -0.0005443895323569799 -0.0008265175639531805 -0.007209950440797553 -0.006753483640899233 -0.008866967803157096 -0.006152668532354095 0.0015200920983407694 0.03419782192886268 -0.006742671657175428 0.0028961634021918334 -0.002681972599043472 -0.02082433641064389 -0.003833193620837569 -4.644580430220816e-05 -0.0067455095860701085 0.003081295472596877 0.008746183803475182 0.012905399560032187 -0.010222362604342143 -0.02225992043478864 -0.013532685406616589 -0.009165270811040628 -0.007828830671000962 -0.011133008289774385 0.005710946135012178 0.016561530639465437 0.010697916338940116 0.004581207442649673 0.0034536154535809833 -0.007525775766758751 -0.008897693780862581 -0.002653794071320644 -0.011462526554968329 0.0106662434513771 0.03425908145182416 -0.005924984870517675 0.0011750890351038023 -0.0006202590657030857 -0.01133161909807274 -0.00743347371421526 -0.015051723837092006 -0.011218405119684182 0.015742155538351562 0.03685495795796145 0.009068217590025823 -0.01628176433122825 -0.030734364277576164 -0.010707035957491026 -0.006615854363795453 -0.004538722753282717 -0.0034632256092487507 0.0009983461995269828 0.02592852170169977 -0.005912199058915876 -0.006368088989464522 -0.0001965412650129409 0.015831940093796435 0.013700573793519105 0.004561798663840225 -0.008005052877597382 -0.010682768143104746 0.006708201612308622 -0.004885396874297483 -0.006713561767494463 -0.001491774810968261 -0.007382131828789763 -0.006417760878591884 -0.018175826520135028 -0.012179135225436897 0.017455298120816448 0.035036611604976134 0.010048671486308074 -0.009756691602905682 -0.016624415601694285 -0.029109467461544372 0.010330924050721117 0.011038959454822915 -0.005927937690245312 0.039304536871348855 0.04333282380594032 0.024704888953202216 0.017849949210504194 -0.005811714841622124 0.016367038482929346 0.009301218879014743 0.002982555987996407 -0.001854505234717006 -0.0025030296207127862 0.011610575491194243 0.0015162182448174505 0.0001447164650424538 -0.00016737383987771443 -0.030204078575873896 -0.006692465037060783 -0.004978493462643858 -0.006581372260108429 -0.006246610469953076 0.023413276902621162 -0.003644806065564137 -0.008908787935465243 -0.015011582950987328 -0.03806975513588533 -0.0008352286141957431 -0.0041104583713199245 -0.022906545325160618 0.014895198147532705 0.024325422069654108 0.00875336668924739 0.0009228879487961825 -0.02046668571879627 0.0227395599531685 0.029707626437458827 0.014427620533153331 0.009978967734527111 0.048517787052940325 0.04999437311165786 0.024592149646256146 0.01863883571277237 0.019859997504647 -0.045899537286744466 -0.015139091743288827 -0.01303842422375908 -0.011404576133627158 -0.010030249440252461 0.015166214984635239 -0.014371255966254005 -0.018921838364457093 -0.02476430525695843 -0.02595396562774479 -0.0071065539736411675 -0.00446352711045317 -0.015970227360767055 -0.00019706192062946882 0.01993020995275432 -0.013210886914850837 -0.019966879732402402 -0.01817667861086967 0.013556989422164269 0.019771476899384074 0.003502983286950855 -0.005187840817573355 0.027381091360359426 0.03508051876358922 0.011656563571583085 0.0070667480928857124 0.012325777624618593 0.005111661829288699 0.0022531310494283774 0.0018927581505813365 0.019033703532142073 0.06512985359700313 0.020867385783004212 0.01528552275643259 0.016487670517219014 -0.010286946876021837 -0.03333923049970059 -0.012545389104776365 -0.009893066689633391 -0.01576305256461215 0.0035844229893605114 0.016871615847685494 -0.017908249037401937 -0.025730259376638594 -0.02300480650535676 -0.03260050084306633 -0.01566612989880141 -0.02037131725326822 -0.025814020432145708 -0.009794086069903448 0.010812292554069756 -0.013419745501788444 -0.011462882227091823 -0.02410184458218197 0.014524887460931184 0.009756163902837216 0.013193482168850088 0.03661249560179547 0.0852483556256566 0.03373905797111233 0.02766292777411682 0.028420467452132142 0.00021187761268051067 -0.030967722046828308 -0.01520915197861095 -0.0052811884920328156 0.021750536130936318 0.017742805358190582 -0.00223734473445951 -0.002902147963136338 -0.008198543874453526 -0.0070858755567487375 -0.026249218118992584 -0.011834478636988052 -0.012843798807862263 -0.016298731631810892 0.0011990095770321688 0.02114404282941818 -0.008054589962553134 -0.00586262793977139 -0.02109173396906906 -0.034041290968963835 -0.019821696763672795 -0.014811263809764606 -0.01923210086099888 -0.005923532097441795 -0.0018088409929806837 -0.02034206643981563 -0.00950035089908938 -0.005127395155997159 -0.027459381972580254 -0.005286135698990003 0.01286487802862488 0.049769553226829945 0.05267266326534728 0.02762830113317873 0.014471290723107258 0.006639884599796883 0.010501706777990347 -0.02770788802514667 -0.00857242929929726 -0.002320170834332484 0.0037678837314948834 0.013923661984166471 0.030429620152072664 0.03142485117146601 -0.0016769970544285395 -0.021675572400247017 -0.020790884980648485 -0.014884104013098094 -0.006143493655703002 -0.009949729722764039 0.009991644621321849 0.014546614445289766 -0.010888782872369626 -0.000561853531444025 0.00327268996220408 -0.020904530788054917 -0.006322292374137681 -0.0012003266673974524 -0.010664314173399157 -0.001636461512589938 0.01974787008055485 0.006605571986468994 0.00536688614258553 0.002417670590579747 -0.021617443487681576 -0.006325706151701409 -0.0011038705846393472 0.004387319057427978 0.024233861802199212 0.03133088184254137 0.029026626661597783 -0.0020877055192479116 -0.020719934711258426 -0.007725174768297129 -0.007219235043852912 -0.007426697165362894 -0.006474514012978053 0.025514076478323388 0.03959916488254535 0.02539853127318569 0.014092536746715751 0.008448499361812006 -0.018585437781344243 -0.005233362488821674 0.0021606590609579107 -0.006658175756935559 -0.004638768375065529 0.016743284806700016 0.001445340499525262 -0.00014824459399138436 0.0010065825740817004 -0.03218479366867321 -0.016927715564406275 -0.0006103174839390852 0.011172710104240778 0.0013013825860396823 0.016924223902059037 0.005529004830557555 0.0022154230706011185 -0.0063928520213389455 
-1.218019778572585
0.0 0.0 0.013909861102122228 0.0 0.014653486395439157 0.030602897999280183 0.0 0.0 0.0 0.0 0.0 0.0 0.0 0.007081379278839166 0.0 0.0 0.0 0.0 0.0 0.0 0.0 0.0 0.007809012383811169 0.012058630664468382 0.0 0.0 0.0 0.0 0.0 0.0 0.0 0.0 0.0 0.00693366448777877 0.0 0.0 0.0 0.0 0.012208060972948598 0.006274992913233736 0.01613111520182514 0.0 0.0 0.01237602339955388 0.0 0.0 0.0 0.0 0.0 0.0 0.0 0.0 0.0093985927870428 0.0 0.0 0.0 0.008866449673052963 0.0 0.0 0.0 0.0 0.0 0.00955856111815789 0.0 0.0 0.0 0.01582334448480026 0.01162536271741919 0.0 0.0 0.0 0.0 0.0 0.0 0.0 0.0 0.0 0.0 0.0 0.0 0.0 0.0 0.0 0.0 0.0 0.013584433046674987 0.011875687537291802 0.0 0.0 0.011347565973447098 0.0 0.0 0.0 0.0 0.0 0.0 0.0 0.0 0.0 0.02618552094838337 0.0 0.0 0.0 0.0 0.0 0.0 0.0 0.0 0.0 0.0 0.0 0.0 0.0 0.0 0.0 0.0 0.0 0.0 0.012869428265087265 0.0 0.0 0.0 0.0 0.012377165226522843 0.011835876741229859 0.0 0.0 0.0 0.010602811091975892 0.0 0.007124750933137082 0.0 0.0 0.0 0.008964590870064064 0.0 0.0 0.0 0.0 0.0 0.0 0.0 0.0 0.0 0.0 0.0 0.0 0.0 0.0 0.0 0.0 0.0 0.0 0.0 0.023237178348712934 0.0 0.0 0.0 0.0 0.02736935655139531 0.0 0.0 0.0 0.0 0.0 0.0 0.0 0.0 0.0 0.0 0.0 0.0 0.0 0.0 0.0 0.0 0.0 0.0 0.0 0.0 0.0 0.0 0.0 0.0 0.0 0.0 0.0 0.0 0.0 0.0 0.0 0.009628435515192603 0.0 0.0 0.0 0.0 0.0 0.015534910438906506 0.0 0.0 0.0 0.023237178348712934 0.018122336329001124 0.018809352025070572 0.0015298769207727197 0.012869428265087265 0.017684190370815058 0.0 0.02618552094838337 0.02736935655139531 0.013584433046674987 0.00017650052244490115 0.01582334448480026 0.003912733031344444 0.007501166720725764 0.012377165226522843 0.0 0.015435433359266258 0.0 0.00452330975394546 0.01162536271741919 0.0 0.0 0.0 0.004786536799088874 0.007809012383811169 0.0 0.00789048113829633 0.005782412981235402 0.0 0.0 0.0 0.008964590870064064 0.010678184052175878 0.008866449673052963 0.011171065451002197 0.0 0.0 0.00955856111815789 0.012868603331552214 0.0 0.0 0.0 0.011622177407562061 0.0 0.007312566987284399 0.0 0.0 0.0 0.007124750933137082 0.0 0.012058630664468382 0.0 0.0 0.0 0.0 0.0 0.0 0.0 0.000739467342803047 0.0 0.0 0.0 0.0 0.0 0.0 0.0 0.0 0.0 0.0 0.0 0.0 0.0 0.0 0.0 0.0 0.0 0.0 0.0 0.0 0.0 0.0 0.0 0.0 0.0 0.0 0.0 0.0 0.0 0.0 0.0 0.0 0.0 0.0 0.0 0.0 0.0 0.0 0.0 0.0 0.0 0.0 0.0 0.0 0.0 0.0 0.0 0.0 0.0 0.0 0.0 0.0 0.0 0.0 0.0 0.0 0.0 0.0 0.0 0.0 0.0 0.0 0.0 0.0 0.0 0.0 0.008488755910369707 0.0 0.0 0.0 0.0 0.0 0.0 0.0 0.0 0.0 0.0 0.0 0.0 0.0 0.0 0.0 0.0 0.0 0.0 0.0 0.009026652880200306 0.0 0.0 0.0 0.0 0.0 0.0 0.0 0.0 0.0 0.0 0.0 0.0 0.0 0.0 0.0 0.0 0.0 0.0 0.0 0.0 0.0 0.0 0.0 0.0 0.0 0.0 0.0 0.0 0.0 0.0 0.0 0.0 0.0 0.0 0.0 0.0 0.0 0.0 0.0 0.0 0.0 0.0 0.0 0.0 0.0 0.022333558521150702 0.0 0.0 0.0 0.0 0.0 0.0 0.0 
