0.08062978459904355 -0.004335252183875546 -0.007121223186849084 -0.01443359741857953 -0.016903728087653662 -0.025941654812341966 -0.0062323164367669185 -0.024406646978533782 -0.010563718983154079 -0.030115420389289015 0.0012336812897372842 0.004495782109196654 0.005856816579786235 0.00742964681973715 0.008518860244077666 0.0034784719997905 -0.006039018376846221 -0.009200397843346943 0.04773015846461358 -0.00025956888223058997 -0.006840681247568786 0.0034509110879881576 -0.00588251910728073 -0.013545602019088112 -0.008075387195049931 -0.010428746900305695 -0.009070947092526744 -0.013295067918431892 -0.0070100942474650135 -5.151705384271615e-05 0.00822131748879657 -0.006507818499958342 -0.0014635879206848445 -0.004102304072146315 0.003087662407640279 -0.003068476046353647 0.002302313999379674 0.011362506755193453 0.013320240839791973 0.009693935800595119 0.016864872193555123 0.019026593476532926 0.007059962757668573 -0.0027802179381782757 -0.00930437080875285 -0.017821462226337802 -0.003155448619958009 0.002812878629487243 0.018236479074295577 0.022708843455925436 0.018474175922718595 0.0018661630127491894 0.007951566674279468 -0.006518353964872819 0.0019478375502533412 -0.002518739261184736 0.006183701074962284 0.011036295168380731 -0.0004501389485609119 0.008042142984033352 0.0012263589672808135 0.008057822802511636 -0.0005717625553638981 -0.005718983119965047 0.005327765382653142 -0.0013078980213160696 -0.012161672143436594 0.005554961687746815 -0.0027385752338727155 -0.014898362712812675 0.0013832501620352246 -0.0011216622134135935 -0.018606267340697445 -0.0056889435240148325 0.0010877253747604415 0.02301503615453947 0.028311252878224186 0.024016676729702452 0.002314461507728468 0.0073543917895565756 -0.010649793351302596 0.0023527499359469613 -0.004556462635225574 -0.002389177686259263 -0.0011034039627398967 -0.0006544166686635279 0.010207555434708079 0.0058339544600454684 0.00040141214585371834 0.004448750871290585 -0.012036573409414398 -0.003304496575434789 -0.010025898491225968 -0.008398451474834973 0.01828876653420234 0.008337118895090886 -0.00376642075546387 0.005949751604446201 0.002335299400736855 -0.013464271375820713 -0.02070980848357305 -0.008937337424060691 -0.0065411356451806546 -0.006905543136946937 0.011817541724974186 0.01832741811884658 0.01711480378946561 0.01871934699373031 -0.009667072692306109 -0.0075266881762226625 -0.009232144135166187 -0.014699577496616741 -0.0013225657251186356 0.01912995711334873 0.0051865087183425845 -0.0027433796771968166 -0.002779912566980033 0.0074617957043283355 -0.012880538907213203 -0.007554415262505658 -0.00949291411017607 0.014892946451732374 0.018266025584072327 0.011656190581785011 0.024769154279424978 0.024277618408579282 -0.02509226787474181 -0.02438650759878833 -0.01011882372616528 -0.015685151240012837 -0.011898041253607702 0.002534327193034245 0.015280257238252926 0.011349855977042123 0.01628903415140623 0.0054047738596706245 -0.015120299733553744 -0.013430238456372322 -0.018440272783458327 0.024098888153348992 0.023351564495827346 -0.0033296600793374775 -0.0015746735734381817 0.0062098258524742635 0.0056299380981004385 -0.011614845869495292 -0.012509703114155609 -0.019080367399896943 -0.0009655700002225512 0.013153867245627109 0.004986628324141212 0.016645328873506324 0.017086106461113745 0.010991302202127254 -0.014804261390246697 0.002959713949606319 0.010688224759996952 -0.01449336897490758 0.017054345813798735 0.02169493085778814 0.0075336864804471755 0.004196785475380336 -0.00038843811275893756 -0.01581209100092599 -0.01228070067766709 -0.02417873800359649 0.008766875073791857 0.01158335728717455 -0.007039424429607329 -0.009887187092029603 -0.007272707756853557 0.010925495809127495 0.0021954578054192726 -0.008353493063118127 -0.007396496426369388 -0.006834764987885851 0.006150158509809989 -0.010642823960531171 -0.02080425212253077 0.0026537899670933496 0.007606119985792459 -0.016981778506363194 -0.0006545415260105797 0.009534002593253524 -0.013988531977479145 0.013060246878897274 0.015111625528501824 0.006627287987104286 0.005354473607584214 0.021577764312880915 -0.0014673937057215248 -0.01137134008766535 -0.00830042742095961 0.005730206786946099 0.026096021547197607 0.00036459274980484317 0.0056075065465309385 -0.00365355563741413 0.012963397209019007 -0.003680251660729594 -0.009145987461172626 -0.00960038838723532 -0.004913277718522081 0.01189898473100128 -0.005707785214780144 -0.015205069309782597 0.001443053445404998 -0.0016791750815551973 -0.01031569422633526 -0.010400531419230816 0.004504778262479174 0.01802254860640463 0.008945045034445504 0.006941347029833649 -0.003980082924812015 0.013982201540523213 0.02066079952524415 -0.0041084381578800734 -0.015411666230331232 -0.01746652349936608 -0.0009055923481083404 0.022516262313313256 -0.000463406972306456 0.0014019580453565569 -0.00798730239980338 0.06755198321402234 -0.01470073887968239 -0.015767378953012383 -0.010700707278608038 -0.02361051181295324 -0.01024579672350513 -0.011579051952888086 -0.008091702410997137 0.018982964601745325 -0.0037386686016738914 -0.01128081698795601 -0.01194654669889119 -0.00022355715407426944 0.009121863848873769 0.001621795888414217 0.0011265732637417848 -0.013468449799555846 0.006997795271946239 0.013108130941131868 -0.0131960652044089 -0.004811370402381187 0.0011997953547421493 -0.009128457951449566 0.0009530190441772452 0.002285549641163414 0.0046086704115584735 0.01556291199697972 0.03473878985506802 -0.012540661246698311 -0.014669382936714543 -0.0032499683965599674 -0.0035896840490566824 -0.010516196304714983 -0.009265454970884523 -0.013194043548028016 -0.016442980741375672 -0.020436740015031877 -0.013762115322635958 -0.010405384661014629 -0.006798312834051568 -0.017977308627497957 -0.011134709687850144 -0.010609932786041684 -0.005834528005845413 -0.009523970285862899 0.06287210238513677 0.0027424692626522606 -0.0042913612901186666 -0.003982112228187811 -0.016507566769746372 -0.021863065520815506 -0.005738424598719591 -0.00616293405117689 -0.007770996069077389 0.004722872145528759 0.004974730856386335 0.008516088376299682 0.010822814983995885 0.0005181363907380532 0.01134315381552987 0.0014650319021715908 -0.009275711356521105 -0.011303276585697403 -0.016771189911917044 -0.008776114147963369 -0.007022014536927276 -0.0012525407974979667 -0.007283842356762658 -0.0033707861243108114 -0.006008754131828001 0.00267897700388112 -0.004947481329948108 -0.004986635892826694 -0.010834278129613413 -0.01584488103867678 -0.01914356341363753 -0.0026837880838461612 -0.01874650601939629 -0.022856608921226085 -0.0017914522579162311 0.0009504012351083907 -0.00037648250781113736 0.007435285085685578 0.012030749967249168 0.012634396930328131 0.014576916849847252 0.018383218030014734 0.0060395974375660735 -0.0035498649544303366 -0.015238650639498622 0.016239560190183425 0.0229913437340248 0.016610250294149583 -0.0037970918778176925 0.020377915162976018 0.022234144873425857 0.011116254128021873 0.0012154705273793166 0.0071417577078313026 -0.00711613039056942 -0.006659247772564249 -0.015169266946575683 -0.018730355145640573 0.002207074174841 -0.009787005724733643 -0.017622417130227896 -0.003347116510669001 -0.0018358616407419006 -0.02407624367243415 -0.030444687554188547 -0.01505124546822076 -0.012188983329304962 -0.021543412991322966 -0.004029870971869892 0.004945173033118088 0.005235474816315731 0.007461988929353605 0.02873929945734485 0.02303075082768004 0.014456361728916733 0.00033203977154486414 0.024716093786503537 0.030135044257121334 0.015262358655999687 -0.0006507443353276124 0.008724145727975766 -0.026035526095545995 -0.01563232919069095 0.003336411122900249 -0.0023378758617355793 0.011045853834906402 0.001508130976019208 -0.0015673579610852263 -0.0009802471799127957 -0.010427434641172824 -0.015310373580493813 -0.023149956206932856 -0.012404940599741484 -0.02254194199700253 -0.01990270614634112 -0.003373487255535072 0.004744788756529648 0.002810009367645692 0.01470818484682502 0.012543172903595292 -0.014011937259285982 -0.011183427224949055 -0.01647321112610233 0.023800198007557085 0.011313524537663183 -0.00866995207604145 -0.0006254859141761596 0.007217526883396951 -0.01947674764974434 -0.014366965122351942 0.009275445162411739 0.0032013008527828303 0.0225668642598833 0.021014944860423504 0.003001618238343815 0.0025795612510734396 -0.0044025165364491355 -0.025178789506747155 -0.00613237134182702 0.013935852467577512 0.014026514723889091 -0.00025627189087767217 0.008502534989504748 0.00948740372666809 -0.019808731876311346 -0.007582323591473011 0.009419894570321318 -0.011082365601305978 -0.0038398069548079266 -0.016168905818002524 0.02689007329119885 0.021097576014303315 -0.005368681658370802 -0.005664576021903188 -0.00028183500136625154 0.015645172005156697 -0.0031717889528845417 -0.005264827172393984 -0.0003810280142568282 0.007801037681586315 0.020535222652904507 -0.0018638532788241144 -0.014190768494992657 0.010557142591128717 -0.021486365510723766 -0.0056239207678749886 0.016098989798948683 0.01197525057245257 -0.00896348292643351 0.012467151699572944 0.014540316126397277 -0.022436092340856015 -0.010252048560957662 0.018910289961446825 0.002320876176039257 -0.0013112075474655284 0.0009947756860385637 -0.010524120520251094 -0.03083181688216509 -0.017173854253516363 -0.01661419648813795 -0.015751715177681008 0.011455149481298617 -0.003830767463386542 -0.004563666087699218 -0.005689642695753832 -0.00034162589134605997 0.01386422209900083 -0.004023348299246176 -0.005678314527944855 0.00837070906036491 -0.0038549054949181026 -0.020487243464846476 -0.01503849521964358 -0.005367543693090986 0.008640038369658877 0.004339642419141676 -0.002069951301999853 -0.0098493267036917 0.017142843297472114 0.033216476696663506 0.0031505767835748664 -0.005634466626065703 -0.007214129318070066 -0.01979851628980651 -0.03419738021389498 -0.011301799478347677 -0.011516648291291535 -0.010456560172116929 -0.00565946679583942 0.009158099191540387 0.005083569179223967 0.00012258514172749956 -0.013568019376001453 -0.006170109178033438 0.008286502045037307 0.01738529507131039 0.021052720570589205 0.010932908354522293 -0.017086708468120305 -0.01675392836977139 -0.009299859363631865 -0.0005309302931065579 -0.00042705589752040324 -0.005304943770464699 -0.013464848121030333 0.01741156834102187 0.026647832511782824 -0.0008532404927492918 -0.0033056141394970933 0.0007023182698232391 0.00017108655161812686 0.002671387777477922 0.005274925905415707 0.0090040568018244 0.019762832875665416 0.004842143101688175 0.005230252924950338 0.0011295989597019272 -0.008476699475633502 -0.024651681561572557 -0.013733932275466541 0.0003230901993648663 0.007500452310922418 0.012078092658811481 0.026549839838767252 -0.01592333773712394 -0.01569482497411634 -0.011163442483163588 -0.02690391043448589 -0.018371622269344315 -0.00635399949716925 -0.007704089692894331 0.02682436466403752 0.04263659424502529 -0.009028821067500636 -0.012927362770096448 -0.008449635909579277 -0.027582170596477332 -0.03171750535324877 -0.017020398361486583 -0.015586062107744231 -0.018405585310895763 -0.010592642714796506 -0.007015048527063103 -0.005456604857995309 -0.004627052098001186 -0.01696476315158385 -0.004043444742758358 -0.00804306559472322 -0.01735662894220635 -0.021859351877206726 0.06351170338075093 -0.0017331657850418387 -0.0007459997688707271 0.0009111068467218079 -0.013024910199466378 -0.03326622962238195 -0.018333032909519223 -0.01489723451146215 -0.009325606005252661 0.01466799798325539 0.014620360459166773 0.010523333513608653 0.010770677719450982 -0.01783092735762831 -0.008235424373990672 -0.0008539440796502657 0.021048082865684152 0.031900635728093346 -0.02052054914184926 -0.0020309158334744573 0.003521476000925107 0.003710928223963787 0.004206402890570621 0.011977158237639148 0.0015893952118091372 -0.010883692631901224 -0.02209854040610709 -0.0034609375446110003 0.008795951316413564 0.00494927785772767 -0.014137276320730936 0.0032665391020356245 0.004201454666641664 0.0022488422826471366 -0.006563990172754395 -0.004003264302190026 0.02729032632250119 0.028399851206359582 0.018806990806304057 0.019320627751063055 -0.00045602968748793436 0.002586456889951187 0.0025141305488228585 0.03336305532479143 0.04375293985791907 -0.01162029518716483 -0.0006871395704197724 -0.005550745289614703 -0.002881301825071386 -0.010235318523798246 -0.003482583271056386 -0.012964693544590887 -0.014985311350002287 -0.00743490361027473 0.024185177274325294 0.027884985355199798 0.012816044765279632 -0.008358258947438498 0.011139354901385387 0.01468424075711892 0.00978929247260016 -0.0013057517207448778 0.011763489435041715 -0.027860135390061658 -0.017593990780208558 0.0015022128654583406 -0.004152899356068957 0.00661832071134721 0.0005721786688067578 0.0018496295692105006 -0.005378778553023163 -0.013278226090724925 0.008165973370661498 0.006713998086101615 -0.0033812395283912824 -0.007690885514207109 0.0015303924151963972 0.00871296877837773 -0.007305131296392254 -0.00988009374685667 0.016509717213448932 0.0061871601308326795 -0.007542957091188487 -0.01822010746227056 0.012253905661513546 0.015053992325635479 0.014681078069977578 -0.0036898423202794866 -0.007643982839381793 -0.0020337780419301217 -0.02032274501193357 -0.014555748508075061 0.009722137090847347 -0.0005488107638131226 0.008659043170032337 0.002367111970524017 0.0012201139788974088 -0.004589690291383279 -0.0082462354393121 -0.024158704129375534 -0.004170519641725428 0.007687772269881257 0.007579064311879255 -0.004063258341761926 0.0015593373739840025 0.0029254418678632257 -0.01587716721283031 -0.01193078229516228 0.006269100696769115 -0.009188761799487074 -0.016187164137686567 0.01244248021492406 0.01624504702523354 0.014082741657479879 -0.0004051507268596189 0.007331554307179928 0.012975393214608872 -0.020240676967209895 -0.010565919859104763 0.008842342901420159 0.025570820428479392 -0.003246340102347528 0.0002163234953037568 0.0023435510775235806 0.005543710961379919 0.019274522095189796 -0.012994774663021817 -0.001058400426941964 0.009730582974114093 0.007426578415185811 -0.007925332234276834 0.004399622395631339 0.007361589166847704 -0.011375874446793789 -0.0017078603570331254 0.01303701720902958 0.005254677698691424 0.0007523126499595356 -0.0015657143677363396 0.0038237812970569993 -0.009346883234126677 -0.013800936722684141 -0.017983077781256573 -0.015026168131072722 0.0012792722702259552 -0.008905088679042949 0.005125618459286483 0.01471596776786865 -0.008371224669618251 -0.00451648249961323 0.0008230200120432132 0.0036862409876142086 0.03409958419643313 -0.027660617795813254 -0.0032334330087961816 0.003970949156714938 -0.0035055466921843892 -0.006913166067109249 -0.01697341373712998 0.008940182241215202 0.005802127339398682 -0.011798987086888557 0.030656706541999645 0.0041708734796303635 -0.004615584396655302 -0.005337133961494651 -0.0035277240269979224 -0.01463582711184512 -0.010408960781968927 -0.01145933952580988 -0.0065013289382465375 -0.022925912990887514 -0.0006343523341738395 0.0022436715959348336 0.0072281020588047026 0.006270471855852577 -0.001826049889400148 0.009762787572188443 0.013691378068969277 0.006964441589528745 -0.015168387620965897 -0.00538146975835825 0.004029014674493118 -0.004197159339715522 -0.016356260847263854 -0.023586249862895845 0.00464930728872238 0.008900410948223587 -0.0002524428435261439 0.013420347555235343 0.006882179751982492 -0.00515491487526528 -0.0075184781754776605 -0.0022093639832332724 -0.0025729495918910368 -0.002793242616215944 -0.015933478068500942 3.8817940386016905e-05 -0.003007207057346215 -0.005979609845486865 -0.005006720209457873 -0.0018443461622224798 -0.0042674007448961155 -0.006201109584936033 0.004332822203087357 0.008027138112164264 0.006573430367278074 0.028289227403890043 0.003742584164820313 -0.0033207669724476404 -0.007402931123251831 -0.019434963224346555 -0.015260468994611164 -0.004517992564777362 -0.008540290578702748 0.018503090752241963 0.01701984609497469 0.00859677064071624 -0.01001547512505056 -0.009448252497512145 -0.0054091150361209065 -0.0023121943285763424 -0.003153744954683277 -0.01300705030615162 0.006268670118708465 0.056884746205518776 -0.015089280521477807 -0.0065379203418428145 -0.0046668535245192565 -0.01946137297291329 -0.026656714782129103 -0.005714577204414799 5.981423785075303e-05 0.023575581993845702 0.037983766082829495 -0.012650738040157814 -0.0016820622495194529 0.0022889689876939875 -0.011820905137189154 -0.027111377540407877 -0.013175578993529528 -0.011611545431674686 -0.014617340632917452 -0.0040724384059715926 0.0011451250575763602 2.014105778143675e-05 0.0019968231773185444 -0.01255178785909271 -0.013657107512050407 -0.007706101443256237 0.0032539562807589826 0.011861822045433155 0.02029296056951293 -0.012070098223425082 -0.009771188181340425 -0.016942723681972728 -0.03759002204730269 -0.03000172635075317 -0.009219583724584878 -0.020358377019390764 -0.01582615448894454 0.06237090165524613 0.01026966419252545 -0.00999197033994145 -0.008796613430392225 -0.007144797041494039 -0.02066939481367475 -0.01267260242999383 -0.001210766188943045 0.052694123818075096 -0.0013749555894835119 0.009265270159092663 0.003319156929434867 0.0028751030032721585 -0.008319463092117408 -0.006895568302284834 -0.0023467242034189194 0.019887988458322136 0.026642759184224207 -0.014941017587914912 0.0018350318905005786 -0.006442863711268751 -0.007435427235672167 -0.014460989099834821 -0.011311523399104314 -0.01540417726664493 -0.015553963239954737 -0.011050946050862332 0.06738662233236052 0.022502267255438895 0.004062935334929606 -0.004432051220336994 -0.004554849999798035 -0.016748391730208045 -0.004413020560610944 0.013783943325636596 0.05992490225456962 -0.025470958392394483 -0.010411548771952522 -0.003468373068321513 -0.001225790736715505 -0.008566171879228125 -0.019181087216878057 -0.015523083726448091 -0.014336483561646074 -0.004615940040879784 -0.0019032022002612357 0.008935395918397891 -0.000826907965500456 -0.007884260935749222 -0.00022903243719819122 0.0026089021882417136 -0.009476740577345355 -0.010336368489705013 -0.001995391898749324 -0.005037450146194852 -0.011776098962372849 -0.020717290332718657 0.0018215809920305152 0.008299506964816754 0.00820827816955688 -0.004738711983097522 -0.009296642463845674 -0.0069584552877232355 0.0100601160602573 0.01467809266014367 0.014919712630160196 0.008189857629001686 0.004192787904369507 -0.004583319689898475 -0.005742185340637865 -0.002579088612810176 0.019520999910650778 0.018207905575380757 0.020473911871975697 -0.0036665550767976786 -0.005931624976717017 0.01501435315009424 -0.006402768162479097 -0.004105434932638888 -0.000799378441128426 0.02807747498808086 -0.008120399587133084 -0.015308755970329138 -0.024515384593040975 -0.0021540060178994814 0.002886482208797301 0.0034414652125096877 -0.00599437699034336 -0.006747000816189775 -0.003424696489899309 -0.031511747712389786 -0.01741566174558763 0.0004585338337136069 0.01282061713942691 -0.009273311028146517 -0.008673299140191782 -0.0033049233146444324 -0.00044428565816003254 0.002253309133339041 0.005461216479670755 0.016531450512087268 -0.006845844669097897 -0.01116384772176766 0.008069991056044185 -0.009127585413249846 -0.004581033144684214 0.0039520846276764575 0.03025417837779968 -0.024314647097485324 -0.008578918447572975 0.02188845100088646 0.00997508560724921 0.005433531315767669 -0.02374384735056307 -0.014572967555343914 0.019028373929661658 0.010559342986371853 -0.01770751182584654 -0.014890282948420121 -0.002047799131642042 0.008316932100621921 -0.00937843148370383 -0.006093777157966714 -0.0021040456512809234 -0.004322798589457829 0.010657240166597427 -0.030555386979269194 -0.006176425484005951 0.0011225615178485672 -0.0070825629648698565 -0.01694055831518726 -0.021126720054237335 0.0029219865602779964 0.0005545781928276238 -0.01307641788399021 -0.0051456309183262865 -0.008418835393516743 0.017224137110794322 0.010903302895198152 0.0075466871453986 -0.02055695020670001 -0.012182708215728458 0.021960212882653155 0.027921678488995186 0.005681406888002444 0.014669839696871169 0.027818945256623772 0.022543065506495426 0.015237393089328801 -0.014938636429161762 -0.015135846464818085 -0.006258303508401709 -0.0005516324655365249 -0.005035058304471799 -0.0008182904983604996 0.00622655222150676 -0.0043858988043498 -0.016903072272916587 -0.02159807577924296 0.00010175915824033548 0.0016946886544723086 -0.003627679794386733 0.014539580478416273 0.004894178216824476 -0.003157073487082671 -0.008475660563123209 -0.0006901737367673418 -0.0005656847134955941 -0.003036590990928388 -0.01788542648962254 0.002880846386928241 0.013473510191875973 0.005879055098269364 0.018740465145133285 0.014328325980224847 0.008105373061395261 -0.018694636459685755 -0.016769894764122606 -0.004781605248515836 0.0038899959709615584 -0.03954162730769842 0.0095129657954144 -0.0018308702340637528 0.006715820737101802 0.01763608999418073 0.004515076385542009 0.008790507201846497 0.008511605463634397 0.00853435609352219 0.010789593741355854 0.0012318311637439798 -0.012349520377821 -0.015817477996627017 -0.007707710752736173 -0.0053969000480081864 -0.001724302073385483 -0.013709307599953388 0.00037987433663738863 0.03666073496214229 -0.017952791539655975 -0.0077956385342674225 -0.005013032433882228 -0.017252464937564542 -0.021126811361078846 -0.002571069861431213 0.0006108071393325218 0.01818857443623868 -0.027134793435344366 0.015507044861765965 0.002888992208491938 0.00678321775955712 0.008637235021129702 -0.0004869947264837594 0.010182027987771874 0.014250383143548283 0.012124969878771605 0.023813247524825807 0.006631861839553602 -0.014227378994537973 -0.002251558407806919 -0.0089105394445442 -0.018492008541367663 -0.013228482918866807 -0.007994081287512198 0.01823895648590096 0.015380298444137831 -0.015259886703579828 -0.012995554681134888 -0.01624532386990167 -0.03730804697665281 -0.029181061112915897 -0.009368993791743172 -0.01802875583267099 -0.012843634906542079 0.03212319104713322 0.008097831967239524 -0.01289323340457092 -0.013508219593756688 -0.010404525076633789 -0.02313357836345078 -0.016121301611460904 -0.007949869457412308 0.037848198098375835 -0.01186645894516148 -0.013034917050920667 -0.009088658032633536 -0.0357059585672182 -0.039160079804527737 -0.03553585788919825 -0.017023020316327023 -0.01005855741772042 -0.014984832866730732 0.033116404947008966 0.0038844927560236224 0.010664690185255683 -0.0007036459639609009 -0.013141551923575027 -0.023777042236662566 -0.0021103522002053118 0.008176002156118476 0.05645402943540219 0.03921274187939329 0.01779665875662958 -0.005742831155022252 -0.010320684051287691 -0.005414763696563009 -0.015376519266213072 -0.0031093336240112022 0.010572239903632772 0.04896743278667535 -0.03623472473818265 -0.008613714641211287 -0.007054390960081098 -0.008230038829781188 -0.014623166923159223 -0.019508666337891195 -0.015314408531893567 -0.015479305702217831 -0.009092575939769035 0.04769708274850873 0.010123215810150982 0.014335861104418719 -0.004488943433500094 -0.01310447695328943 -0.017921194288711268 -0.002993434812666731 0.006384073426038793 0.04947089145691064 -0.001566257460616255 -0.022975065224287904 -0.014560914263956755 -0.00941382986647386 -0.0026328211996129013 -0.015873471254315877 -0.018092754353781444 -0.007853397453764245 -0.008669322189355485 -0.027543661397217842 -0.00016105076962731125 0.004368598370554923 0.0007323386594539833 0.00438071840464213 -0.003840228572546355 -0.009317819547824149 -0.011483900245339806 -0.010006801472168446 -0.00719366749644097 -0.00042063805234885115 -0.013904570011681213 -0.013941186862120904 0.003026138587589335 -0.01307075305474954 -0.006701671348995382 -0.002706612684143839 0.015042934027301435 0.023349228526764576 -0.007810791708256071 -0.0017936164234736698 -0.001419389862683502 0.009350840592066506 -0.004332393956050172 -0.012428503177202073 -0.0008670033147914302 0.01461349412955229 0.01418477329971218 0.007769431879898829 -0.022230458126667452 -0.01897844928245841 0.005929544022165021 -0.012815429396469166 -0.0075163949933647 0.006372816447351819 0.012154619057479277 0.0017294665281673606 0.008494951375298414 -0.01008060911833188 -0.010066845391601097 0.010512807472982395 -0.004024514608205137 -0.0035669800649513516 0.007101581888859189 0.023643559370697807 -0.014497850537761509 -0.0002498239294515905 0.0180986516651806 0.008600231148006024 0.007854500716084529 -0.009052280423639055 -0.007612086300457759 0.020143596124454474 0.01378140699057496 0.021683535952515737 0.016413219252743937 -0.020457290650398006 -0.01968319230055013 0.012667517446250331 -0.004761324197758566 -0.005891530628073317 0.009378143636285032 0.011887189687665582 -0.007837604069288075 -0.008220360375724736 -0.013705311239214127 -0.021039532872144863 -0.03230843594306391 -0.020042535414233845 -0.014544491808681143 0.0008018046376939553 0.0066352294107096905 -0.011077722591508955 -0.0032152050500037508 0.018886452236371996 0.007661524776658832 0.009201738448882816 -0.005836182615868135 -0.00695580171475873 0.018399565802027767 0.018949691715395994 -0.006513430444209942 0.013848428320355485 0.020398029993285556 0.01878945187486031 0.018478375127230818 -0.004860628843747394 -0.015162335262770256 -0.0047923694214750566 -0.0034811189126062025 0.0128994433053406 -0.00048752445788536746 -0.019542846051988323 -0.02584768470565255 -0.02672227775619427 -0.016358928697750866 -0.010669435649282525 0.00987259619003354 0.02868014001777533 -0.032625250721061344 -0.002490700084175038 0.01722314462557798 0.01884894993804538 0.0009556475830958893 -0.00034603451979319346 -0.010748120697151307 -0.007495292762981358 -0.011532616508796832 0.014273863515170468 0.012765514506505307 0.016748799906585288 0.01237475417179391 0.011296878891645473 -0.011776533716307632 -0.011359217754208097 0.001047537655476746 0.005373210966643434 -0.02700794516423699 0.01925520251416342 0.005352052579356053 0.010502613214538235 0.022774053840947994 0.005382878779926762 0.004929412332920146 -0.0026297288364582143 0.002752112214472282 -0.010825394072731628 -0.0010763048897626543 0.016350120185075055 0.010606416767706498 -0.011457236983993783 -0.0047906896256790735 -0.011489959301206857 -0.004023555103782585 0.0009750848530785172 0.008088686367825452 -0.0017139135467391453 0.013717901346729223 0.007980691355835012 0.0033564100545270016 -0.0038038410708846828 -0.0008370279877870908 -0.004952726423290491 0.01661218490387755 -0.021833423096824015 0.026172354433548952 0.01077565875948453 0.010609986341871748 0.015516090341102295 -0.006347269015848947 0.003638637018600451 -0.0005122447542371157 0.0014918187538539266 0.026305030140480492 0.007558760614793559 -0.008702545427784125 0.004323448386193935 0.002120390862240513 -0.011689006393410634 -0.010736863965055984 -0.0020184990260524766 0.0221335560903545 0.00718455231019155 -0.005016480801059203 0.012952037279442804 0.00565150920161447 -0.0005917077137826603 -0.006843315178417574 -0.0015353899773160244 -0.0024839981344996556 0.01789864921997801 0.013021686076931372 -0.007072702477456735 -0.011548226775899131 -0.006669215276356376 -0.02480467335385234 -0.02195696879616167 -0.002579541726406914 0.008211292910803216 0.010688183538535137 -0.008014691123512848 -0.013122019440350784 -0.008092358508198975 -0.0392869206716911 -0.04257372015208762 -0.0331363299214696 -0.01539524204373688 -0.008063565828292816 -0.009626555978840115 0.041681091635658626 -0.0014422309064174564 0.007440828763556956 -0.012815278329566695 -0.02297191188163411 -0.02467835220344538 -0.00878065505586023 0.0013504339036925096 0.04280251782400869 -0.005658985036426787 -0.014156957216285945 -0.005685199357047007 -0.011359904919997266 -0.023034811913176502 -0.017846540259109554 -0.0062446857341486965 -0.00722802689907495 0.0013597936859338043 -0.0018525187454757732 0.02096848682507226 0.008161171677196263 -0.008873778776531178 -0.004592734133201093 -0.003935706087334347 0.0019463426630056454 0.006454871864994618 0.0315370277196456 0.042182464215775636 0.0053143886917144546 0.013174036679252018 -0.007219658436442571 -0.012941374393387084 -0.013643997973839493 -0.0015239891062064916 0.0052373140571832545 0.04150111696092927 -0.011419879726822816 -0.019531128833233893 -0.009357806904600587 -0.0098965741573626 -0.003861369315890431 -0.013030329689706913 -0.015475010467161947 -0.006509107134841331 -0.01381302238023889 0.004798526694875516 0.02679835135411445 0.014094532154692214 -0.004092670167895073 -0.002131193410876641 -0.001189516799259199 0.0049408669511660395 0.008738019578501349 0.03335261229449683 0.01008396969261114 -0.021199026520620716 -0.018568180287093235 -0.004241880535493514 0.0014974744571355826 -0.01695768928313196 -0.004799214252529434 -0.005153552088205206 0.025961491046503762 -0.00263856114723807 -0.013223840993220135 -0.004707790286633014 -0.0021407589358642225 0.006741124526628056 -0.006458906477896265 -0.01682973769560338 -0.006608888043438252 -0.005303162525247956 0.0020765544145251507 0.0022751260599189974 -0.022237990709845543 -0.01941249305085046 0.0030397120664277483 -0.01367289363705607 -0.005525421532073069 0.009241894394057452 0.01000771450174215 0.022440413078475156 -0.016077653126415698 -0.011277446239312075 0.0033334445021245144 0.004423595197194336 -0.01216490461811419 0.006183080240100001 -0.000898382660431822 0.044476026857532 -0.024708265820493038 -0.014294905749165938 -0.019777322690465313 0.008450648504199843 0.014045169207354002 -0.020910561168505117 -0.01925062605655313 -0.00786776032856391 0.0019239701608948178 -0.0003580283686046839 0.005601624143627932 -0.020629288465213003 -0.01837028640894823 0.013853213360165727 -0.0023142666430631845 -0.001840344932693184 0.011620339055846196 0.008649685026194724 -0.005836990308664775 -0.007132716544193964 -0.012537624471778188 -0.018931105537153943 -0.035839054118848565 -0.017436848382309002 -0.012524011560360515 0.0007715640888994167 0.00480837693404882 -0.020569112574776945 -0.004374105128076686 -0.006858876688820584 0.020631867774964282 0.02443731900269709 -0.01650460321218082 -0.01812662990063333 -0.010946764281705823 -0.007683868814720228 -0.015733245814917182 -0.020871859585459694 0.00812057261118573 0.03314956325637618 0.038528767081257215 0.008247158163817287 0.016272988162458996 0.01053712660602056 0.006138611033701625 -0.006334768444535927 -0.009139190328687482 -0.019642532841882623 -0.017570027881700336 -0.023247699733628807 -0.010664548857392354 -0.01026688359745129 -0.00030412064124914207 0.002711533388304428 -0.033950568299192165 -0.01389583908726443 0.0086104509499776 0.019301508534040675 0.000577095602717934 -0.0019105657666092196 -0.01355757218773111 -0.010321920012705443 -0.01487598026569783 -0.006481827899893561 -0.023526898820839054 -0.004825581503904192 0.0252988872834098 0.03370710759847363 0.004500127664097338 0.011434136082071097 0.003544589789121972 0.010250829768984922 -0.07287598198401621 -0.003330410450115476 0.02112680982202322 0.0160976571935291 0.03858750176847267 0.017039449031765387 0.004785646481958926 -0.0011224418817071863 -0.014393858696087999 -0.01246546515954445 -0.009147289162721887 0.011703894677862592 0.010367908194806432 -0.011799451419281458 -0.0027130053831272236 -0.009763346697691095 -0.005688493437146485 -0.0033718682922223766 -0.00860615802523818 -0.004808759131049734 0.008373776309137982 0.0030501444367659765 0.0023928344451794115 -0.0036238446588073344 -0.005492880471562455 -0.013307965578059291 0.007980907821632462 -0.05879596284438367 -0.0028012689994745318 0.02113833900593177 0.01758799901991572 0.04111927398821896 0.025837224561463045 0.0030334931988249595 0.0014782264283795905 -0.0018230361675195166 0.0009004905734725363 0.030643641606090313 0.0143788383415046 0.008043870158495729 0.01948053045097787 -0.005956678179684264 -0.007605353507777541 -0.005726400222210421 -0.009601452520826408 -0.0049894732303684105 -0.009385646927936366 0.00470771955676759 0.00017785756571391022 -0.0006213073213333017 -0.008910621654957781 -0.005692730121934338 -0.0069789749045416506 0.00951561471472872 -0.005167965595977119 -0.006951193980773067 -0.010732320226384802 -0.006103226452079145 -0.025724633163938762 -0.028160924772592407 -0.007665137241587887 0.0038087282845799897 0.003442896295593792 0.005565000962397061 0.04339639937771103 0.02165291251004096 0.0106622788938844 0.027701799872685857 0.008589051996028699 0.0058418323080405 -0.010176214566862457 -0.016766553594831805 0.006529619193691232 -0.017847643974521238 -0.006440448291736475 -0.003525754044055832 -0.006668728330664482 -0.017073882463784256 -0.009326976221705195 0.01719712955287064 0.002700509071048837 -0.0010175958629061615 -0.012624130792499712 -0.005362229641365922 -0.014694493719601114 -0.02716673825394274 -0.022176751430554576 -0.009388634285981502 -0.01111134966243863 0.0039730291336582055 0.013118036077924253 0.01468281775917318 0.003653581954779755 -0.01867730401116649 -0.013520521031570271 -0.010321193647111204 -0.008060889114858392 0.002610398522001728 0.03549268639567589 0.0005017208718208692 -0.021287684576482394 -0.011011397939703167 -0.005331494211431276 -0.009740112445500762 -0.03912422928776272 -0.024903238055459864 -0.009451880970056191 -0.010240373660954441 0.025971560983195602 -0.019655615060382624 -0.003034429267623105 0.0008086968736800873 -0.011197863080215602 -0.016007686310626584 0.0043487263227959295 0.01286919271637581 0.038425466527436204 0.02073207213998002 0.025791366380561842 0.012746968152250364 -0.008451339821112245 -0.009935006207621513 -0.008242077165640073 -0.0032987927616662683 0.004899326255577726 0.03451338870155024 -0.0027999056818591543 -0.026848804719664936 -0.0254861587073842 -0.008850951566579678 0.003115741018763209 -0.015726217096107935 -0.004685041896359475 -0.009705900796627774 0.01241916525881714 0.0319047321480658 0.0026150954821480875 0.008115839317361425 0.00795062337878433 -0.0022519287008154593 -0.009417837489238258 0.008062645413296902 0.019655518094503017 0.0505696581726883 -0.009892133958601902 -0.013287576345412095 -0.016422874752228034 -0.009904503988774242 -0.017868980638185213 -0.025620242424235357 -0.014810538147047457 0.00881435712272222 0.037374728685690146 0.015841915855011258 -0.020819703149474216 -0.014580055934414526 -0.0025809710042828324 0.004738017407319646 -0.010963636620706136 0.004191574552463403 -0.006363684095424089 0.029968849371101215 -0.01839285984431014 -0.01229216245208809 -0.015474113606336057 0.005455071090939071 0.01938376605636783 -0.013115483663305798 -0.017026355729246174 -0.005363203683498619 0.008584135874537803 0.005379752069625804 -0.0008757750186027773 -0.006460766469602065 0.00030116164109369775 -0.0005662940102376455 -0.012752479872796676 -0.002659013961060809 0.0208705874033373 0.0526666457206306 -0.020169068040092768 -0.019045423521526713 0.020429287034456046 0.03685118795996372 0.027976466706706015 -0.02750010732065562 -0.012271876930524056 -0.012975107190986993 0.0006783453729873431 -0.030717052066410414 -0.015293503978380493 -0.013804272009208094 0.007307371460599882 0.019804656682917608 -0.017146884160898553 -0.019716017916104965 -0.017144438771138793 -0.01621359682094393 -0.030371876124422395 -0.02703877839113054 -0.006787872212854116 0.018550990838062387 0.030046723404733376 0.004414041290735273 0.007581228909523436 0.0013642279903652039 -0.0036958991519341054 -0.03299569801151526 -0.026499893229692744 0.009791414454301864 0.03825424318497111 0.02713528001250253 -0.0289697979369018 -0.021029107812592568 -0.029519050021914118 -0.022284719667627136 -0.030834550484650676 -0.0033297850143124324 0.023570740983229563 0.013578164884111064 -0.000983526942856785 -0.010623611580513363 0.0018475529290972572 0.02938409358492146 0.011225719809222023 -0.02294809971588759 -0.02625969735561016 -0.005158090751216918 0.01699283439753381 0.024334238828561887 0.0007251393454052668 0.006184579849662863 7.295416718368602e-05 -0.0006719851469247781 -0.079024848766997 -0.0194743698753784 -0.000818723097357005 0.0003773294791490304 0.01807413627771909 0.01144548358110521 -0.001388651725385796 -0.006566498486367899 -0.016572005507106677 -0.02851053399687512 -0.007843631173066249 0.01114184203819704 0.011299519027143348 -0.01028568481867411 -0.018838920290528773 -0.002287055228733076 0.03025003461165067 0.01231493767916287 -0.051653363325107025 0.009219992619291684 0.01890008743060739 0.0065924691262518615 0.0145658254853827 -0.004283204320883836 -0.004008348013524901 -0.01682743853607257 -0.015183470211534843 -0.06841298920436138 -0.011511462159576125 0.008433528864057967 0.006863842497896966 0.02336680366677812 0.011155371819736932 -0.0023967998795593596 -0.003948342173704271 -0.0112497579250455 -0.016085826636308805 0.007873985305400606 0.004164473731672003 0.0057744084181263495 0.015271049462726324 -0.009606477713346046 -0.016090515414712497 -0.017986274041461667 -0.021134514878877932 -0.03859200466971512 0.02098287487444781 0.030687970429900752 0.01885102813418845 0.03843586908171174 0.0033692259244244103 -0.004756084963291571 -0.0155395912904391 -0.007390315144752464 -0.013575434997342962 0.024306025167739217 0.010914892970477258 0.002657785980323263 0.0007156637582903015 0.0007482288618908992 0.0071755778598992705 0.002169190475439777 -0.023572696574137457 -0.006413718853107633 0.026049375009222952 0.012147082493459357 0.008268309016722934 0.02062027645006452 -0.0011577064259685804 -0.011711711096760098 -0.017020709901865213 -0.02005802788873273 -0.018470773682748277 -0.025971020429843433 -0.010162759588339825 -0.003384366483006461 -0.014171583826472623 -0.02473816221239447 -0.015070955438751156 0.005903336370297807 -0.012324716985628658 -0.0020136719734687065 0.0417508516576058 0.021499184981742168 0.006186760182054968 0.010091103276077325 0.004892449774213643 0.013286355023838205 0.013995653993172201 -0.024179853838502498 0.015903417758337212 -0.0178342375871585 -0.016254854357429308 -0.012370859011074131 -0.014225589656899377 -0.027316777514390368 -0.008845652069762813 0.00019877311486862607 0.011747420829923555 -0.012048514630791159 -0.022735578692449306 -0.010038531172713272 -0.0038736352031245704 -0.007758288780812925 -0.03159776014085151 -0.01775857277770149 -0.006731813147962435 -0.008977043545112853 0.0254450355502833 -0.012030242204109974 0.0012512834901279811 0.0036325766882178293 -0.008062131110533775 -0.01721851867121079 0.002086511631840438 0.0084371810657358 0.032646747881539984 -0.02850831175694545 -0.026134276533865984 -0.01663450616749979 -0.012171274045263783 -0.017988195610222947 -0.019754338797426507 -0.02731715350696577 -0.03090254199187348 -0.05003710867149455 0.04926391440786151 -0.010478446840720367 -0.009892680212600152 -0.010593737259416734 -0.02624043274243633 -0.0021632620481545767 0.010789016092135312 0.02635964665660762 0.09040992346352206 0.010706944815080383 -0.009082812573094916 0.0004921478067230244 0.00085882548609582 -0.010428987347961277 -0.018099201825517892 0.0006019259612452742 0.007505227917914321 0.021641081325411385 -0.01693439274776554 -0.015965981383508177 -0.01645785626671096 -0.011356776161289316 -0.017736047375146384 -0.026706627619129297 -0.015568912579647608 0.005953338452360613 0.030838393366971976 0.05033109132319678 -0.0097399358428087 -0.013166762624361866 -0.00672171698574604 -0.02328073498823236 -0.006097797581045275 0.005590625010873297 0.018605846786315643 0.07771326804251377 -0.023079973625450854 -0.011210215357785679 -0.02392720622968215 0.007501283109477369 0.0068915168279740984 0.005302184097001912 0.011922621770600944 0.014872603206815138 -0.007053779427118932 -0.01720118761715539 -0.01049391029246002 -0.010172045029892985 -0.0074300894265382725 -0.01214571545012682 -0.0200762401161221 -0.008805313257658709 0.010179831660903596 0.03125689569552311 -0.03324536830621457 -0.02812698069001347 0.005812647907440944 0.024533018530364673 0.01176194050900091 -0.028168430589137403 -0.016718195704935403 -0.021204348525875296 -0.017080907976508342 -0.026614513623049407 -0.00905828576498049 -0.017728271517283768 0.008104386433654118 0.011382288548462544 0.011027306202127506 0.014594121072354936 0.02180313269533602 -0.007813831168656428 0.0005998492318082011 0.009874099066530624 0.05138888498956553 0.02196661339248021 0.022592270397282847 -0.008949603981512563 -0.02193639838095783 -0.01322242628633662 -0.007009558152871178 -0.04069136425611949 -0.03339420997296159 -0.0007108299029403807 0.026558532690056084 0.014697683746193253 -0.025883142494390325 -0.02142078822415068 -0.026766921853499704 -0.0246809928569053 -0.030287650081519218 -0.013369406016305176 0.003512124993274118 0.001023946975687362 -0.018282012368231553 -0.022361594492197334 -0.006558220438564807 0.020161353049694897 0.003956426847214478 -0.009550556828504052 -0.0036554541737676134 0.02655065982894701 0.013583763622208717 0.02791352271636797 0.005818738208771992 -0.019566256173853176 -0.01304121968816673 -0.013793895374329962 -0.029073928727509663 0.006403116455982574 0.013922560261319328 0.015109491350565728 0.011931626574801237 -0.00320789026717095 -0.01466164781954575 -0.001202758166697274 -0.001271787562064382 -0.03186598386062619 -0.012969263639135099 0.004029713678661215 0.0036822404750745654 -0.021653431985411822 -0.02643020061819733 -0.010262603581784484 0.019138642850600716 0.004096087558247384 -0.056978068201075704 0.003056469800016174 0.014290777454167507 -0.005355550225329085 -0.003473403238202645 -0.015931128058651486 -0.011366208326668804 -0.021118538926220707 -0.015463995003459595 -0.03179838596140499 0.006143585826323062 0.01292559361387907 0.013615002171166705 0.0067306187576917495 -0.00663496132809018 -0.016780404590275754 -0.004774826505203461 -0.0025916833715579467 -0.02992352340548678 -0.011578213550276058 0.002882205269836338 -0.009981448628525255 0.031946967502279655 0.04052465856225555 0.024125190715816498 0.011011092356727193 -0.017052322301887784 -0.05832974862624407 0.013049516733123628 0.025683662617495738 0.0007363365300063062 0.001494548603848009 -0.01379340703763635 -0.010879530470413895 -0.01995976483266352 -0.018438950473156593 -0.02823121106730369 0.003406707316093984 -0.0029275103650191698 -0.011459992737684175 -0.00750350558403916 -0.010051974295232257 -0.0038701658950715374 -0.009725040341225831 -0.03294754367063543 -0.027424161720458404 0.00028108049186781857 0.012076394432561637 -0.00582646941233622 0.04040374399816986 0.049602890451512435 0.03208385003881139 0.016425541795166455 -0.015013999418809716 -0.007876223394451203 0.013528416726153604 0.007877431355146276 -0.010615501317752733 -0.00905506688230579 0.002002768685777492 0.007692808711784356 0.027614787883667988 0.000808195064864117 -0.014204664216064901 0.043739154245216336 0.026755340312019062 -0.0016882836147549297 0.00035982933933894674 -0.007163550098632718 0.001984328946981121 -0.0020518000472271748 -0.029002223976296416 0.0027474012443177865 -0.021804271564009735 -0.017743541173456764 -0.018466976030206566 -0.021192311090401993 -0.03664612424854258 -0.01369755255117597 -0.004923377091032553 -0.0023435761520807646 0.0020313164673808927 0.025222919457761152 0.02416575232719313 0.0047591662340469585 0.0013608695740397175 0.013846632866263711 0.02626145461500364 0.05334593796413267 0.028782496084924558 -0.02384768988586236 -0.028375938387492645 -0.015129732722135634 -0.008501064900018236 -0.006047900367997119 -0.006974457708918153 0.0016536780959933695 -0.013379896531604367 -0.010447300909718186 -0.039868097151604255 -0.029471029719400684 -0.018115012201319218 -0.011196913739352062 -0.015780890690936238 -0.01931477484830186 -0.026754593179377638 -0.030195764163906465 -0.05354979854682805 0.041039562902346526 -0.005956326697148814 -0.004215035984925579 -0.004836055441226782 -0.016057275289845862 0.0008099494440603842 0.014113981520180268 0.02786193369352857 0.08744922837066656 0.00602762641354224 -0.025076636238840575 -0.023364179378036927 -0.020714733001023868 -0.019881289052961312 -0.024381917606534527 -0.015441195388740536 -0.008103169623658335 -0.018655620466751163 0.02724076588967931 -0.004549463893753681 0.0027076171201298547 0.006813064909675368 -0.012856952037803331 -0.008212173060219168 -0.005325863401589418 0.030359276506008625 0.010727061416785727 0.0278330613044313 -0.013780429441318335 -0.0112830401365738 -0.00739371301686513 -0.021553930382621406 -0.007820257110828082 0.005859467129727366 0.014766980823073941 0.06698438124463432 -0.027198652841426002 -0.012730161290663924 -0.021223908301608852 0.0055103267374114525 0.012904482769416538 0.008045514306913923 0.008024347959115455 0.010043857298674677 -0.011875862729526725 0.01893464377237935 -0.009557085459990905 -0.002622173334558361 0.0018149697129518398 -0.017855911284907943 -0.01275865017799423 -0.00600485612201782 0.020273013514207516 0.002339513395616902 -0.02071878162873073 -0.005542394261465562 0.0031078560012148086 0.002802715836706948 -0.009264270170618816 0.0016366736402371462 0.0261650240120456 0.030324398189798037 0.0071268464933281275 -0.03380680008321322 -0.015026703096987818 -0.02091519962703379 0.005094640330118694 0.010144643730739441 0.006421435714517426 0.007968575277136998 0.012152380685881864 -0.013971792545649061 -0.0024453913289581865 -0.004063268770465533 0.022564795191862393 0.010975917019330284 0.013900445127633384 -0.01881387819754628 -0.024354508089745 -0.014764167387672254 -0.008891284917834306 -0.020362478045830718 -0.003169933740270098 0.005678560622137792 0.006022830036230489 -0.007352935432466486 0.0038328753549510975 0.02679001080410522 0.02725178244439795 -0.002416587337585454 -0.018584762373094706 -0.00734727438767414 0.0025623230270277243 0.004257169341001816 0.01749935864645992 0.02967748347482243 0.0011195437937959554 -0.013412447036417759 -0.013839574571178766 -0.005014767200340174 -0.00809949376572771 0.015837338213773724 0.008336783595739824 0.016071118231935026 -0.01788734408275278 -0.02559860630393728 -0.013996246027473647 -0.010827444404788613 -0.03269615988476209 -0.001760088340995821 0.011403506659428332 0.01254238083108656 0.0004814429134655961 -0.014798722646668531 -0.01834621305590102 -0.0069857478330667515 -0.0031769960516754357 -0.021077586601357653 -0.015172552707496031 -0.0027896093703591376 -0.0019469782806023261 0.012268258443523453 0.023769853632207266 -0.0011521595456005984 -0.014811411727997765 -0.017117004709147836 -0.0035907758024892053 0.006881139510430168 -0.003211883725066158 -0.0036140506692108943 0.008327334708811033 0.01938416592859879 0.0047988118878150125 0.007755934401590852 -0.004684614693061711 -0.029812555652742594 0.00751837899518691 0.016274371284185966 0.015791932342829773 0.0044096153437792815 -0.015463910647808854 -0.016953298194594093 -0.0031827908050238427 0.0017683664354506748 -0.03457258339502256 -0.004480527606532115 0.012435892348565401 -0.007382708147496253 0.026644694640370215 0.02893273879287301 0.018288325331602823 0.005167380346430402 -0.02254917960146947 -0.0003858712775342147 0.014227759261280682 -0.002995268470667104 -0.0038797426419003187 0.007436156878641646 0.01867725525734261 0.0044175371881499245 0.006971517727822946 -0.008476003951750005 -0.027055288112357908 -0.008362754065686777 -0.005448703878688889 0.011979993880417743 0.00692850990625855 0.0007022439523159058 -0.02499077902660933 -0.012664042865896969 -0.008686651104767382 -0.027585764868851247 0.00941133978395261 0.021632602781653642 -0.0011866708682073072 0.031935119645555315 0.03216574386161029 0.025078603701937752 0.01204307800374419 -0.018464110228043017 -0.0043307724123840844 0.014668792310598576 0.011740125410404336 -0.009830478769157554 -0.013856090258472224 -0.002749561295360481 0.004704627276244106 0.020353432224400066 -0.004524737329779699 -0.018285679508967343 -0.0035529126332877977 -0.0009534504699337117 0.021672295995768313 0.014726492355114687 0.013149393340855815 -0.01917605778647898 -0.006600055021956034 -0.0006847566230153456 -0.025053387669856722 -0.016388830668983115 -0.003579964470721276 0.004108918377210758 0.000745511869070845 -0.0223806357717565 -0.025114376237729656 -0.00032625939598208975 0.011036126605098284 0.015094677812516579 0.03169926535719517 0.030901977562666723 0.004202710371462492 -0.0045978902060221675 0.006802598893024054 0.02123566910428147 0.04382243007191574 0.022019233589972605 -0.0145151069985452 -0.0206290700706703 -0.013382373409572587 -0.00897341826470469 -0.008772784164268157 -0.012239152404719345 0.004362376466639908 -0.012795133301820425 -0.012860611747875412 -0.006864651191965785 0.0008333077785523217 0.0068254463714781345 0.013677632898485729 0.013078955069309997 -0.00045665975209487785 0.000786754187278603 0.01768956732651548 0.03543798202816216 -0.020937143354941262 -0.03076870987665574 0.00044158372112843296 0.00023496034442733663 -0.007754524694880725 -0.005898164228349463 -0.001747534760780023 -0.010099343784227872 -0.0032257175711783064 0.009376840879290065 -0.030344576595341385 -0.028473789062363336 -0.02266719831673463 -0.014405876646687266 -0.027194507746293096 -0.018687764256002534 -0.005817896276319652 -0.015493652137351896 0.03633534602184187 -0.003530150759058519 0.008385540023824979 0.010556241424125003 -0.011344323392041498 -0.005048127797582914 0.002582242882705388 0.04060369611308811 0.03486391339126839 0.007901661594847278 -0.021067882244701956 -0.011300901663720707 -0.007462033670939681 -0.0087389943580996 -0.019413869037444673 -0.011864481806303945 -0.009603102283646681 -0.010296634895918647 -0.012135461281766045 -0.01758246149859395 2.0885154338333672e-05 0.001712817697600621 -0.003167959742966453 0.0007280302318190576 -0.022517413389163243 -0.000882102771327965 0.009953450104317692 0.009882802358834462 -0.015967969759267904 -0.0019984378804191565 -0.0009262601518000787 -0.019224034360122273 -0.009800631851071226 0.003749102357714982 0.022988422718239396 0.01435350924374204 -0.02501975805474447 -0.004305421512693241 0.006510929957410454 0.00895524617680436 -0.002117223576985559 0.00798901119847869 0.0407917692686992 0.041033176576858954 0.005446861084023827 -0.0214444011383782 -0.029452801953512135 -0.003653845812917709 -0.00031106224224067844 -0.006033827799307898 -0.004688228665069112 -0.018939505520727914 -0.0013357221460237804 0.008390107053753799 -0.0423567293845208 -0.019701396049614264 0.018390275255805336 0.029831510957865383 -0.0015272633319440793 -0.000278158206867968 0.034372583939551844 0.05271208616507167 -0.0077946340719012635 -0.030096856539248394 -0.005192499579212984 0.004140946247870001 0.006623516470703424 -0.006567985003135152 -0.00013311123447588228 0.028551679223636623 0.02703387317951937 -0.010247752237965245 -0.02051244579720325 -0.01206387121500208 0.0016314638036134276 0.00197048485473222 0.014957106409515222 0.029577268666464436 0.0023668571740452686 -0.013755950568556176 -0.013457964586899216 -0.044661356309153036 -0.02050041134196548 0.013104747176284473 0.026608655130529072 -0.00521601314376568 -0.0029337010587069485 0.029763812218275072 0.041317486142876496 -0.015137928348433817 -0.019257219704795853 -0.012455006454670577 -0.013768128579453988 0.016161631904548418 0.01730331868324311 0.022106152272490763 0.016801940425978597 -0.00453988364022121 -0.01599236906656997 -0.02197223451629946 -0.012093113401911815 0.0038369623220066594 0.004661016080896262 0.011025749993153844 0.021794699671716752 -0.0006289750972559797 -0.010953295626578116 -0.012349728335428344 -0.0017029484697306634 0.016450406071234283 0.007707713739016569 0.003882319688491869 0.001899201589707058 0.019214105494740476 0.006352580672797723 0.010744726389477243 0.00042489649088470996 -0.029276085819604534 -0.016699192668530604 -0.010177474909672586 0.01751566823946394 0.019079864656702326 0.020576459487606443 0.015248820611573807 -0.00792914782634954 -0.02151572971646865 -0.014765399008382134 -0.007858228470954397 -0.0009204499484978192 0.007929564842322536 -0.021247609643835416 0.012660372905009154 0.01802851257068096 0.006907782882749949 0.004226017964647876 0.012392386782018207 0.02558322549864563 0.005928453548390763 0.004746986926781637 0.010898545980791981 0.021622273180745565 0.006702550501964086 0.013426798461769038 0.002055140866782276 -0.02280062609516237 -0.0031868939892466907 0.00329595019720559 0.02017925507795508 0.011326498700810983 -0.001089929982386374 -0.03068478503320025 -0.011451571353940397 -0.006079797722857447 -0.01630508882017226 -0.004224555368414109 0.007109606763684769 0.012549510881058865 -0.013655598522925347 0.024382201176153855 0.024609517440775875 0.01095854741932915 0.003108069769937266 -0.017532691005164757 0.0009958388779795204 -0.009673249411346585 0.004818670244694573 -0.014981490388342256 0.007700017499996965 -0.0021676287709207287 -0.006301582056063984 -0.000844237937053149 0.0020338381317644713 0.01239736643428853 0.012481242967784054 0.03376313040870733 0.02827971388585797 0.019078817940992254 -0.018062838175126945 -0.0060764500565465675 0.004309928564251649 -0.015713444237726894 -0.007553728334253121 0.0027020314442376477 0.008853748062786448 0.005392883331661409 -0.01809586011450148 -0.022154184893093853 -0.0018009383117882237 0.011923386619438443 -0.0045893695481352545 0.006521354464361169 -0.006256472308715078 0.012506457647452054 -0.004110005527817666 0.020357343804019826 0.002856476393140887 -0.004656824412772713 0.00803273121733212 0.012953011478812176 0.0022257164707346396 0.012211238353391371 0.006797725923918942 -0.01681873911921034 -0.02079852466138481 -0.0024535069525657123 0.0060199751481417076 0.008999373369176599 -0.006063836724816741 0.002339296112039145 0.0064853630457676606 0.01424289340708268 0.01719225089205617 0.004909579745519368 -0.004180634280090524 0.01082917907672247 0.027713943409333544 -0.013373567311069676 -0.03269960653903139 -0.007505088625999015 -0.0034058292603488228 -0.005561195310348244 -0.004310211913783751 0.004298968883201509 -0.006634200221874932 -0.000628874413170791 0.03189159058299407 0.013335135204758406 0.02053377379703255 0.016646043116868885 -0.0011428771239325106 -0.00496340932596518 0.02343170947897267 0.025819868713120572 0.026398466911114887 0.0012997316669789729 -0.03299237259452284 -0.020792598245427365 -0.006650707908757279 -0.016725169288717978 -0.013508916224096553 -0.005460585229758248 -0.002666256172405695 -0.008516824316046789 0.02050715425200595 -0.017922800402019514 -0.01162784495301516 -0.010401024405748182 -0.013443134504654133 -0.014516081839467863 -0.007216284503215968 -0.009268647126847 -0.0069468118514491575 0.0016211672897393635 -0.009065358579853154 0.0069310052371921995 0.006921057951845887 -0.0065221988955980964 0.0011434500110066306 -0.01907400630591061 0.01500603065603573 0.03983353366501724 0.032688208126499044 -0.00013994983555575729 -0.010640818902993291 -0.01982601857374348 -0.020967721324918528 -0.018723138856852527 -0.0030854613183165782 -0.003220229016793505 -0.011471763053025727 -0.03151763342398335 -0.02056983303776456 -0.011414241954362324 -0.01004738546072415 -0.001507658291143069 -0.0016286126909083863 -0.007965537016567926 -0.008636843604092984 -0.003381888155282985 -0.019413894256605453 -0.026634735442713848 -0.0008084815153373511 0.0008735141635444815 -0.004434414584044523 -0.0013166747192052488 -0.023078183884775574 -0.008074604583829408 0.004525357692959146 -0.04487345610245881 -0.01803945289954918 0.021553434938190636 0.0367821436412795 0.004689319777683321 0.0014983136393559012 0.04438501755510703 0.06927627851546193 6.672534969350778e-05 -0.041907837215462464 -0.024520839451567845 -0.01241233270637331 -0.008822254377434642 -0.003521908101352552 -0.004386690818962062 -0.015330721685214394 -0.016188637174471842 -0.01250183840811893 -0.02171259361863537 -0.024973808525131258 -0.019278783059278312 -0.0017498587286857346 0.005804289007158561 -0.001334025512876077 0.007275797532698067 0.0021629234094112026 -0.009634331571112185 -0.03762533957662773 -0.019463657241964624 0.015632500470005462 0.030352057025908905 -0.002573756777514283 -0.0025551087127453067 0.030612292377817433 0.047873970428610725 -0.006404382786083728 -0.017809528738368937 -0.014977038207576432 -0.012904274957109264 0.019645232954888847 0.019774950798472215 0.0187358592326724 0.01690051471511977 -0.004851025611265791 -0.0166999693053094 -0.026698590637614032 -0.029645059373310842 -0.020158636325643048 -0.008026439374749339 -0.0035922559720148934 -0.006462627625165638 -0.0006160148142655822 -0.004489691512705969 -0.01075510674231452 -0.0007408492767881276 -0.015267941881158462 -0.0030001271839766547 -0.01423231313271836 9.253339356063948e-06 0.018347099216088444 0.02145885264965156 -0.013518004480902245 0.0024925429357930814 -0.029703363330352502 -0.016247320607378216 0.0014387093319594509 0.03038497703333271 0.017663091142554554 0.016745728981034713 0.013598724522387104 -0.004230805951438094 -0.016048713218685284 -0.00027749025783745465 0.003113609811190619 0.009474814465782458 0.011146614166349282 -0.021855397435833944 0.008789423875866238 0.014486760684270641 0.009590062063562664 0.011944339509937387 -0.004237993561993279 -0.016247326491535877 0.003284743340665213 -0.008037613196872054 0.002236906808984866 0.017423516761768766 0.016666954074908598 -0.015321858579471813 0.0008118052998750257 0.016279513969480016 0.010442065076019117 -0.002155688145771329 -0.008959501286255828 -0.019984839106718017 0.014921160079705436 0.010694154226582542 0.011107042675810096 0.014112900471249563 -0.00377011589808932 0.00810417399127964 0.026592586744976183 0.018978505600448024 -0.022820823306165257 0.008053593248167727 0.015397189840987655 0.015281433209891152 0.015728512465672525 -0.013708045233322577 -0.0012055143231631646 -0.01080979305897209 0.00525330184051431 -0.02131234219741844 0.0018462670464473143 -0.008548218564283545 -0.009294680054188542 -0.0007418057111360738 0.011879900865593549 0.00833987510014209 -0.003489067538746381 -0.007536747848065816 -0.016551840156918504 0.013822811270804954 0.01257914923074729 0.010596801573836223 0.010546259477007023 0.0019636206605854285 -0.0008194848265667153 -0.001854741403239466 -0.006600237067531583 0.0022580840701910687 0.01724710306686793 -0.016082766659504068 -0.012817049925540202 0.001032758717905385 -0.003371708014857129 0.004538617028987275 -0.013899467045593734 0.010384880654600706 -0.011592378273689447 0.015055632723208501 -0.0016293830988057343 -0.004145282289751286 0.020821450398258428 0.0013401641487029684 -0.006463089955290891 0.004797885479535318 0.0030838654162407544 -0.021959130513032953 -0.025140267110234614 0.0040701247428554 0.008100875831147958 -0.0002480382740657515 0.009849175083265948 0.004143885851379552 0.00037058780113653506 -0.0026149847820080546 0.009625043183314683 0.027956416993117083 -0.009489194553202147 -0.004779430469370141 0.017216043685051446 -0.004481528417686045 0.003588078476197488 0.0060546560273154835 -2.3905803410777205e-05 -0.004349395364270325 0.009482544198791772 -0.002472339620869065 -0.0007777737477660757 -0.003817955635246236 0.019169640563511534 0.017622700208256036 0.022483251681202045 0.020411101969167282 -0.0014810366092918956 -0.014144726896651059 0.014165329509393315 0.02069881962509239 0.015366777320451767 -0.009034057830567046 -0.04337155568724943 -0.028664547748566065 -0.013866055089654213 -0.02850263960967584 -0.023859550741008165 -0.010480821943611641 -0.006438738997481532 -0.016710220261884748 -0.0022115531613646536 0.010588656228084217 0.012251461637262094 0.00690229043438018 0.005411207647662195 0.020495325533869027 0.003959972033628441 0.002267733617035428 -0.002461715235653523 -0.0014198319508052786 -0.026316713834992084 -0.008419721995005005 -0.005259857154499013 0.0004670844416386944 -0.01455857310291896 -0.006702450916837288 -0.0016983218786679743 -0.013669669283537973 0.03365284334734421 0.003062828727583709 -0.007626442874294611 -0.01862947980701049 -0.013736433308042773 -0.010972599919554925 -0.0011283144000517544 -0.001709009166141636 -0.01102083498898368 -0.03257294669944803 -0.021971346181074027 -0.0078098438196094735 -0.0067904386520255666 0.002427035345098674 0.008018348145509191 0.00900381921573923 0.00132692905147027 0.0005951793457821702 0.02310775119710383 -0.0025218780191196884 -0.02211681645511411 -0.012350046455752798 0.003343253327606044 -0.0011381528235959656 -0.014110909964257443 -0.021236989695126014 -0.02342374359076992 -0.001954247883735692 -0.02709514893999752 -0.014239437731699223 -0.010633543515007546 0.01913925044169394 0.015095460155340907 -0.01822193342259816 -0.007340552208547117 0.00732046608010455 -0.03596375806286482 -0.024315749304922505 -0.00770777571688498 -0.004995840766667871 0.0010723606307245376 4.913865595573627e-05 -0.0020744255586896965 -0.002472173189574816 -0.005153593664712431 -0.022800009750172785 -0.028267723079819063 -0.008327930949038732 0.020103396399955332 0.0335752862677665 0.02582735087044512 0.03477293027263212 0.008009991773381374 -0.011854496421017187 -0.008443828747983098 -0.02302333934238857 -0.01298914998622224 -0.00956325424105267 0.018431373257074345 0.01707861278234223 -0.018571741600386122 -0.008086305278529361 0.0030821573783749233 -0.04098076168554319 -0.015222277614558787 -0.0014838329738615656 -0.0042208364986713615 0.02692503895776493 0.029635741303705637 -0.007408889063977043 -0.016542435640729006 -0.023341804478310843 -0.03141732349083224 -0.03185653305978084 -0.010608544851991624 0.008903084483991642 0.016222955710375166 0.0067312891511282415 0.008938334795565992 -0.00013167006504806849 -0.01363623201716926 0.01669648380643523 -0.006342012031029643 0.006016870868068918 -0.003183986456247595 0.015833109940175633 0.04638224468021212 0.042891014339057024 0.004424105533575306 0.02143152077592355 -0.04685512606020715 -0.01745133501616204 -0.0035396161541763273 -0.006015163269904144 0.009749390715592658 0.01488654042166605 -0.009363352662760402 -0.0158121752109821 -0.023833361351127385 -0.027297368856249008 -0.012420253593801145 0.003249411468941128 0.0084373923986717 0.018521086414656423 -0.019085035342977848 -0.010731623145097895 -0.009577017400942649 -0.0181184824329539 0.003984836662360913 -0.010105474723313941 0.016344985539627765 -0.0002699839303210612 0.002321625254404129 0.01894658797664436 0.01872907333303856 -0.013090431969297014 0.012948117577897008 0.036503144711482104 0.021233474095895186 0.003285183517286779 -0.0030870432702874034 -0.01601791733751829 0.021452104822266466 0.01875627487242876 0.019154552554724015 0.027177450889342772 -0.03262190035503244 -0.01821673953881494 -0.007350810954600774 0.002016752877706254 0.010365608736891518 -0.015177754177041244 -0.012634819854802982 -0.010224454275811416 -0.016766540880688414 -0.008167498107760848 -0.007019654033728526 -0.006392871266500755 -0.004242316779700898 -0.029953089534023668 -0.011442670492176229 0.005542387872491369 0.007858340559186775 -0.0033361364919687326 0.058968781879009016 0.027838279788680722 0.000413026117501409 -0.0016020655988174784 -0.019451957709971907 0.014008643531580798 0.017882080075110926 0.02217335148927217 0.0345063084102073 0.014134340350447408 0.0061514511279210215 0.002195641786839248 0.00028207946936302823 0.007400739203162547 0.02097291032913122 -0.011390868742903489 -0.005341824803912446 0.010926853520021741 -0.010669627754231078 -0.00647639813576423 -0.004579332880179401 -0.0017387881143201749 -0.02701955121585898 -0.014653203678888563 0.006661251385546395 0.008834555121796015 -0.002166190911665173 -0.014152267855100759 -0.010679241283060305 -5.4351999401549157e-05 0.012148476414811323 -0.013897695059643818 0.00331220636306768 0.008494038737603507 0.005806718334624379 0.006023518769344612 0.012643964887848122 0.0038285017150637237 0.0015895218488751 0.008767405191243475 0.019248084630977477 0.03180757640842899 -0.009849817633319666 -0.0019271633397671922 0.018952074987960584 0.0029338834125629846 -0.00047411849469951393 0.0008358708838590407 -0.0007564263777430555 -0.009742336903828254 0.011673961806644366 0.0012626311708686788 -0.0037648296901308777 -0.002425970204509045 -0.020722467324617494 -0.016099309924068553 -0.004773336870504976 0.008682673915234812 -0.012551418735497352 0.010537548263384764 0.009042817599477712 0.008234097113385859 0.009789398782741668 0.0012744882317434795 -0.01109212835650736 -0.007702782234241999 -0.0183622452373665 -0.012182096343407667 -0.01810394423956761 -0.011521630535587274 -0.008492747946168316 -0.012436430655153922 0.01929374718490779 0.009828407462893905 0.008922484295780948 0.01229541908858576 0.009375611778363263 0.022755362023618806 0.009499281708286445 0.005044829225833603 0.005141087959112252 0.01873876986230038 -0.023403288944470527 -0.007006590396556155 -0.0045065590393083155 -0.000907965004346777 -0.017398818008390177 -0.007818184602318163 0.002355981239319134 -0.0024980362560064317 0.025189316721369565 -0.0023944168615203827 -0.0003382187442518131 -0.012255837239160627 -0.002669893455209712 -0.005126491911064538 -0.004819069812891177 -0.001899352879747125 -0.007333429945338541 0.017041326099094894 -0.017139634865787488 -0.015321715233661118 -0.01791052708575864 -0.016386638321872433 -0.03824684501553376 -0.014532269992315893 0.005891147562811905 -0.005430230138396408 0.009553434639584947 -0.010597738006344426 -0.022669092671356153 -0.011477870598638454 0.011597504702161527 0.008368770593722536 -0.013873549781285835 -0.024378021668039387 -0.027493087216132042 0.0063114238319045305 -0.030801618655350246 -0.01539767741573152 -0.01362392551462919 0.01686184585252055 0.01127963586653456 -0.025068153060985948 -0.010148688483646268 0.017100649007632158 0.06517929967581342 -0.0100560138189058 -0.015818706063241546 0.0032586267630115265 -0.02062615086596632 -0.02966155427425715 -0.0022058281429475713 -0.011373268824224837 -0.016007073151069875 -0.026136495937667186 -0.023096800853259034 -0.006426936132256885 -0.0055938101402963954 0.017051050368432276 0.0015235226112588862 -0.017278120676652887 -0.012685389139187153 -0.017141104006539405 0.009614604238911802 -0.031604679715662075 -0.014043714218212086 -0.008102126227153965 0.024798393512791873 0.021646964776686754 -0.014096091405949633 -0.0035642515088806373 0.013870432359109994 -0.03750187234982887 -0.014949943581421115 0.0046798770685354705 0.0041565029725686466 0.044557995135832695 0.04217666973461146 -0.011213120174861023 -0.018910869082216127 -0.024992458990965298 -0.016423688428088536 -0.016388527262370927 -0.0038114123466780623 -0.0024345167118924624 0.01896488025505573 0.003692519883752035 -0.014037252493869262 -0.01444573087634109 -0.018098362165865592 -0.04607303277138619 -0.01912489132296336 -0.006080379792257505 -0.013815914083747775 0.017366342868959356 -0.006929608132746221 -0.011535940772102661 -0.01046220229085727 -0.03458071325762279 -0.032963125310794275 -0.009919909261966545 0.008909504270256899 0.005749898276054375 0.029832253048866622 0.036151086210031505 -0.007789361127472508 -0.014430630400897653 -0.019210010251824464 0.01017341926749655 -0.000664423087506809 0.011327260313389553 0.021713977154897694 0.041409390392156985 0.0008929316302943909 0.0008323967562452786 -0.0007367898523059453 -0.003961128520757067 -0.038204192403855655 -0.011938219187272836 -0.002586545737839353 -0.01598625584942884 0.011822642691152496 -0.007036910354180065 -0.011636036977785584 -0.006117951742510708 -0.01813545112794848 -0.0048863831357587924 -0.013215817741598223 -0.017782738550732924 -0.02664837675683594 -0.004369821608535494 -0.007293654571857628 -0.0008942252135559839 -0.003933966897482643 0.0007725461346195805 -0.014210105035968949 -0.011433031205117268 0.005597876649577977 0.028177582850623127 0.0471214178474016 0.0031023985327659725 -0.0032774554138772834 0.00034021423218847085 -0.002837087105590246 0.02813743544057038 0.014431533412962095 0.007778125281542045 0.007497362182784931 -0.018233875134712745 0.0018609955934007641 0.021753233574715206 0.023183791698433685 0.02112685020687981 -0.00745907897918071 -0.012759631288871363 -0.016681039658717752 -0.0196431780571052 0.004231875440026548 -0.00171705092416406 -0.003998071624013029 -0.006434660667976244 -0.001689134133904809 -0.018049293044308773 -0.02075307478562266 -0.00676506700910848 0.0016014603180736688 -0.0029768764505802947 -0.013561255069658693 -0.002625568165611427 -0.014236561800105452 -0.02939862068807148 0.01843309432838832 0.008067051609544204 0.006156791637382568 0.008949752632170817 -0.014849248770894552 0.0007921430341072799 0.019462067210228546 0.020339620557372835 0.011225213790710285 -0.0073328807648333355 -0.002807399446859306 0.007417558821440201 0.019956628524979377 -0.0017225268786559152 0.01869263150138718 0.023635247968697655 0.019091432734984867 0.022680040545520908 -0.006395618082232728 -0.0230393680851655 -0.008618411908531992 -0.0005805906221819472 0.0038652708956689596 -0.012009293347588232 -0.0029036950768246295 -0.0143198200253436 -0.014403522288305397 -0.027718463891814975 -0.0069950204406568324 -0.003783091755295877 -0.005801567760712052 0.007644820464227984 -0.011990993223793583 -0.00019665323285942348 -0.0038416759775057353 -0.016450808920417587 0.0018388402067471671 0.006859140300618937 0.012467525752345766 0.024202841726086895 0.002753321082768192 0.034641838487662474 0.03200603625820552 0.02894395131597742 0.03514558351468816 0.0315904164620979 0.012518274959964614 0.00809087235401232 0.00014573477886271923 0.007621420559738237 -0.0006596423903540813 0.001232336602426856 0.003718259922142193 0.007253147869271281 -0.024806697297915375 -0.0034815995238872246 -0.0017104859574368688 -0.005101003272141175 0.009336273632308618 -0.011670104284368007 0.0006439937055746692 -0.0010184550059845407 -0.015442148856464104 -0.031181254923406343 -0.02199293270574983 -0.009130267079966356 -0.007402209823619738 -0.01218921157272437 0.021860389134139697 0.0013699537762184282 -0.006356126481326682 -0.02847928898762746 0.03423952544389262 0.005793311083971959 0.0036055857547681756 -0.007827218687371011 0.00295592201322871 -0.004669669992826941 5.2281968037387605e-05 -0.0008241428684041541 -0.004364037068772779 0.03364124921303614 -0.004269262546647186 -0.010368555210780098 -0.01384932408526919 -0.008957649070796209 -0.025832016757334535 -0.0071348209197459435 0.01528796212003375 0.0020487448878839867 -0.01006020210078567 -0.018958889074781413 -0.009033419658126754 -0.010658382082838709 -0.013252126879275258 0.020440927803848572 -0.0054565221255568315 -0.00918778656837609 -0.027545715857158714 0.038724693100998825 -0.008634294580075802 -0.00889887673692885 -0.01734774815165234 -0.027110323804738205 0.014737813026313107 -0.010296777694692644 0.001224443007969434 0.008011992954433637 0.06961245722553559 -0.007356954945082508 -0.021239800760102515 -0.006330960025559783 -0.029506768749811504 -0.03513093775890252 -0.0009618540986879226 -0.009655445764626831 -0.016208167218474095 -0.008375225906224018 -0.018558914859799474 -0.011047050707803591 -0.011421213992118425 0.013268828872730436 -0.0010830008693010285 -0.027894802002336787 -0.01182789131648676 -0.003263125081906909 0.10608375465813172 -0.0033443405225608604 -0.0055696707853664556 -0.009362791809204822 -0.038869349915416615 -0.02931093722152131 -0.01307125215602134 -0.00585367200209267 -0.002936065865486339 0.005374173352626714 0.0008544977339329164 -0.01218840637965497 -0.01028823681555829 -0.013232192912311116 -0.00742602912973659 -0.0073435193106639015 -0.018379586469749402 -0.028295594948890217 0.00029929158408286576 -0.00855829038501792 -0.004195910448643642 0.001214301361811551 0.032464414825975035 0.015294781614336193 -0.008385412047148698 -0.007901650511834736 -0.006661672561988577 -0.03891454924296593 -0.006206355885074865 0.012003561312441938 -0.008732976866455288 0.02330530441753389 -0.011830065017079013 0.004378702743848196 0.0030891342306091103 -0.02962549457717822 0.038046852230989296 0.00970898595742374 -0.009068435577124083 -0.0015277477479289981 0.0016613925097697455 0.003958673042695059 -0.0017236161547223897 -0.012631053774451891 -0.015827528433845044 -0.013197409760179708 -0.004446064449792232 -0.008036677676192455 -0.006625390772713915 9.409661381057713e-06 0.012044120669393733 -0.002174367524614922 -0.011329191631107922 -0.013696427471034401 -0.030947723058253357 -0.0026739822174561565 0.011496960427237208 -0.012414067707333248 0.018788362296232056 -0.010341808916582828 0.0018427366282577598 0.0030604819454806463 -0.01780635003768445 -0.004196483294796331 -0.007962916297089014 -0.015068131685358893 -0.01736111453896921 0.021503852450395447 0.009934360441105322 0.008358151339115098 -0.0024803990452458313 -0.0006163431346075682 -0.007034871786992612 0.00028071660031971926 -0.007475304119208361 -0.008644814821010262 0.0019932684964505225 0.0098500670631206 -0.00735627247549493 -0.011697059877452086 -0.010627403003235263 0.0362139932763272 0.009584624700863124 -0.002858901882719327 -0.0025295699149967205 0.013766247831117594 -0.0016127108362187239 -0.025658254772801675 -0.019105409063660494 -0.0025180237974528 -0.007984223676426972 -0.010979149201038728 -0.016718257620060795 -0.01713615596265312 0.016838000856882675 0.002994108486679646 0.0012890841558030027 -0.0025014129088469154 0.0072116678238813205 -0.01154466440416871 -0.016136716654654243 -0.0021833123281036933 0.018520004522321686 0.011635473167886053 -0.002873929437516137 0.00456270071604412 -0.0125782878059819 -0.031004831815833973 0.02771752975065899 0.007172196479538046 -0.005631721708238443 -0.004657239068342493 0.0073566047167079205 -0.0030062012684655436 -0.02485145523286389 -0.019915408332438562 -0.0014352741431658594 0.014477907872399309 -0.011011051570907922 -0.012248593935080404 -0.005647144419855862 -0.005214439453899644 -0.006031570573490309 -0.009760514616909355 -0.0027316220630178144 -0.010484818483956958 -0.010951448003329544 -0.015839191639006923 -0.0031742095220315303 0.01288110894881514 0.013406359758769231 -0.000617343348029683 0.005839625739684469 -0.0074043313001666 -0.02128052690506544 -0.010316448153274867 0.0008283710223744012 0.004240842982288064 0.0069237133981536044 0.02532358545232093 0.0009316400462323297 0.0054215908257082435 0.00017854362333753228 -0.010460614532376124 0.025461079271134352 -0.010710389787044982 -0.014562711266158141 -0.009755540716548269 -0.007366263720697033 -0.00243140618099872 -0.007214050036891913 -0.0022351281544724455 -0.005813965030247885 -0.025110753092134664 -0.012429595434574304 -0.00942093314472227 -0.014823320001892005 -0.023017312591526066 -0.014647320657151488 -0.0010816809855080708 0.00019931424221504305 -0.015191399918465527 -0.008478220913510007 -0.0015968164407132823 0.004958765893618756 0.013179536254965112 0.041471511590920884 0.015506254439294528 0.013923652515730457 0.008980082789583068 -0.0038592372267961645 -0.012098863268264318 -0.008475334976343386 0.00219155477929981 0.004925816013938126 0.00876519046220696 0.05230273976022929 0.0220261064490287 0.008554461029228065 -0.017881143033583045 -0.02289257080492678 -0.00944829735398813 0.0005300229954624727 -0.003647167472841587 -0.014178660578717507 -0.009249905732470896 0.004795425878032075 0.002990123021489874 -0.012017673677097359 -0.011373931329025741 0.0035168007721136526 0.018531781751438863 -0.006908462366204893 -0.01575883396033012 -0.007778257240740421 0.0017154921620784577 -0.010161525424130766 -0.020575191448668557 -0.011923639073962964 -0.017291423128901563 -0.0050759644618668335 -0.007178342998685478 -0.009790080090990154 0.028833662063331746 -0.0027449667412155045 -0.009679817146122958 -0.027743512745780095 0.04687264681564805 -0.011294137650378433 -0.009147860597136358 -0.01555227230547331 -0.014298309648899832 0.028530376225500184 -0.01147219087344551 0.006668987900433343 0.016539207470094262 -0.01666605686363842 -0.0038464463151147337 0.003570199276075784 -0.01839416892761473 -0.023558168167997474 -0.01626793492934837 -0.00952090359999415 -0.02050547597816341 -0.029093771773374088 0.07444613580447056 -0.008002589950806473 -0.0028497274342402963 -0.023144665807855763 -0.04869498102879453 -0.020186993501928183 -0.001399840490418398 -0.004564541594400301 0.005267753930255356 0.10957992491433849 -0.005148489270998887 -0.015388540555592578 -0.018614619724616227 -0.05177216840751067 -0.04357150201876958 -0.0229445629094358 -0.015600913596733074 -0.008052811775988069 0.0033020518906645077 -0.006272118756309113 -0.01944278225772243 -0.01441798852857733 -0.018966917258806212 -0.0173098276086387 -0.016456694912172495 -0.027052150188157688 -0.0324841993973624 0.1113964676542672 -0.0031822442938706594 -0.020085076618728707 -0.013226765697515911 -0.029945876809880388 -0.02374874076626339 -0.00986687506524461 -0.0033179541295557443 0.019887219977967968 0.0013193538267545204 -0.0041475874298859535 -0.010727925063858194 -0.013368567341194142 -0.006205078613659336 -0.011553716381737203 -0.020907825107148538 -0.02063045379389267 -0.004388706517683115 0.026227549794061798 0.009403072683914892 -0.01163661672379645 0.0004111258934353674 0.006186727273493616 0.005794541282684093 0.002534017446436436 -0.013463742513199392 -0.014570022461386431 -0.006773494720069169 0.00863247195950675 -0.0016059272988507177 -0.004861305200666809 -0.0017864558985324049 0.0030150423162602956 -0.004046551032712591 -0.010998805814681793 -0.011375096518135102 0.02966477057657838 0.004637615004988425 1.9703700627414196e-05 0.005067440169052598 0.025354227605196348 0.014156248113223444 -0.0003845467732744196 -0.0008949199139932083 0.01333762254246397 -0.00693135244058192 -0.000941815185625382 0.00851607373465638 0.005494800673586977 0.0021568462516648847 0.007494030376599742 -0.010946167730400615 -0.011886115067192211 -0.004185076975960158 -0.0057749958460895584 0.006492731330041607 -0.004382850746859417 -0.003215237947673571 0.002909828544779438 0.004461483508655545 -0.009101333727865557 -0.013563614593708605 -0.011435933907275238 0.03517326378086118 0.006809309190830499 -0.004871828137998777 0.003401619019710997 0.019879086362117146 0.001000833478445087 -0.030312435056705597 -0.0230674886957123 -0.004590586407493823 -0.001516620747268486 -7.120338331989366e-05 0.009009242381878446 0.007271158189823465 0.006878765386464201 0.0032071735566823996 -0.01318447573451543 -0.011788373311258756 -0.0034002929140548132 -0.005138231763141638 -0.006810015692005994 -0.006373166904870664 -0.013874331691973791 0.0016510241685592777 0.02116699144854936 -0.01033675752883706 -0.005372067359356476 0.0018533250209803822 0.0353134950990882 0.003923443221495366 -0.005616452164815503 -0.0006114909689351327 0.017742339567918333 0.006866552467365152 -0.030842903042310292 -0.02143411135817017 0.0008607763711386217 0.016488050062095475 -0.019512064920836802 -0.013582987710584285 0.006655890539531541 0.006650515621520827 -0.005605226527759981 -0.014978650389398869 -0.0017743904292711647 -0.006117420367421473 -0.011728840365346702 -0.009484508848924508 -0.0075939219731744525 -0.011748550046712894 0.003754269867920498 0.016828721299203972 -0.010966355774000907 -0.010485895973069294 -0.001126795613833484 0.010947393308824618 -0.019869926993066413 -0.004206783304239803 -0.005042183250050847 -0.0007362294381487821 0.019371924414296398 -0.008789871469143083 -0.0005763984342067616 -0.007225177634254596 0.022124095447264177 -0.012367421846476125 -0.006267018758008821 0.007519792506907043 0.008954074004457756 0.010027741291640998 -0.0043156105441774905 0.006101818280393072 -0.0016136010690736928 -0.0325228894917354 -0.0188196548593357 -0.013555333423915383 -0.004196145514370294 0.007390890843056804 0.013130773953301584 0.014556375928393659 0.000443315608748756 -0.01812307686569917 0.020796059992114764 -0.013700126874692051 0.0010361775019954854 0.0017793523306491935 0.009903837589553755 0.028771061902486243 -0.0015317350478953266 0.0059749767304539915 -0.0015061200429466407 -0.006083310041511086 -0.029174284061711943 0.0013121522981256889 0.00828992139095785 0.02404302742138155 0.014127789317476928 -0.009500200632705548 -0.002179977004615972 0.0043442507221054805 -0.03204838826554182 -0.02094486800745945 -0.013903227203157759 -0.008014165192015808 0.000735903288252941 0.012727204949785543 0.010060196012038067 0.0013066758673664232 -0.01605709983932516 -0.01531329733450352 -0.001523996161187541 -0.0023759906265337274 -0.004615749978232648 0.004184708998909935 0.025741105788812217 0.01040851781278505 -0.013738139653097795 -0.029281018144182262 -0.002843807269396603 -0.027277688929347375 0.0028361181104542164 0.0012046508053541079 0.022087230786413344 0.020921111222006718 -0.008161938132332075 -0.0030963277726669177 0.005144060547017831 -0.0014306949917273313 0.00119211741677222 0.004407308343331518 0.009063634968520884 0.03792701474728832 0.0074127486997156685 -0.020927470003697657 -0.013463615075484617 -0.010134677123715078 -0.01785534766648172 -0.008013183821962741 -0.008423252404624633 -0.01842759898785805 -0.012315487263273615 0.011033974393284199 -0.0019288074293986638 -0.02184231062570848 -0.03340326466956376 0.06717709206074246 -0.016740859454535437 -0.009107201865321417 -0.024628800962912555 -0.042547399440842654 -0.0009487984392749747 0.007217476357089263 -0.005927700589693114 -0.0007826501898424349 -0.020310802695828037 -0.011532184509657215 -0.008273012599182445 -0.0039029071453082417 0.014637259566700023 -0.004580682775637182 -0.028392403478127343 -0.019758933679485637 -0.017728719562058477 0.05517460374153304 -0.001399072261613434 0.0033246987596838255 0.0019661358881436007 -0.019728935436454414 -0.05144500533732677 -0.014667899593069971 -0.007160150657146148 0.005360691837223648 
-0.24686510248175192
0.020049013250709076 0.039480121345903896 0.012557051848155613 0.0 0.03627857136826272 0.0 0.013165086256027511 0.017090356352431647 0.0025970336584784093 0.009849057984665661 0.0 0.0 0.002415438807665482 0.0 0.0 0.0 0.0 0.0 0.0 0.003161594785431057 0.0 0.0 0.0 0.0 0.012020464819257398 0.0 0.007769984193083472 0.0 0.021543303052605947 0.017063867491168283 0.00823695315088686 0.0 0.01238361108584348 0.0 0.0 0.0 0.0 0.0 0.0 0.0 0.0 0.0 0.0 0.0 0.0 0.0 0.0 0.0 0.0 0.0 0.0 0.0 0.0 0.0 0.0 0.0032772040005502948 0.009704561485129562 0.0 0.0 0.0 0.009975499974422652 0.0 0.0 0.0 0.0 0.011687089021572441 0.0 0.0 0.0 0.0 0.0 0.0 0.0 0.0 0.0 0.0 0.0 0.0 0.0 0.0 0.0 0.0 0.0 0.0 0.011172596386131464 0.0 0.0 0.0 0.0 0.0 0.0 0.0 0.0 0.0 0.0 0.0 0.0 0.0 0.0 0.018301945652461044 0.0 0.0 0.0 0.0 0.0 0.0 0.0 0.0 0.0 0.0 0.0 0.0 0.0 0.0 0.0 0.0 0.0 0.0 0.0 0.006487276126341287 0.0 0.016838925380066542 0.0 0.020100638430896198 0.0 0.0 0.011697099303914557 0.0 0.0 0.0 0.012357008969337288 0.0 0.0 0.0 0.0 0.0 0.0 0.0 0.0 0.0 0.0 0.0 0.0 0.0 0.0 0.010062994199469386 0.0 0.0 0.0 0.0 0.0 0.0 0.0 0.013612517387210688 0.0 0.0 0.010013495525050587 0.0 0.014831187629197272 0.0 0.015386945455970183 0.0 0.0 0.0 0.015550292292108145 0.0 0.0 0.0 0.0 0.0 0.0 0.015624573484861267 0.0 0.0 0.0 0.0 0.0 0.0080488101953353 0.0 0.0 0.0 0.0 0.0 0.0 0.02637612378851515 0.0 0.0 0.0 0.0 0.01601186443654626 0.0 0.0 0.0 0.0 0.0 0.0 0.0 0.0 0.0 0.0 0.017291252764364957 0.006754288767343412 0.021661327582545988 0.0 0.01979044901234087 0.007605081967259461 0.01397838994928591 0.011172596386131464 0.0024929421387610094 0.0 0.0009665764518146866 0.0 0.030556784669187827 0.01601186443654626 0.009693457294320819 0.007781863488710721 0.008621682972516417 0.0 0.011883743806641 0.037878412870696765 0.010062994199469386 0.0 0.03007613840531885 0.0 0.012357008969337288 0.0 0.017353569331303238 0.00924195436651553 0.013057350153347136 0.0 0.008870284717517855 0.009704561485129562 0.007614930619067051 0.010720512569757755 0.0 0.016838925380066542 0.0 0.0 0.008608488358140225 0.005680691737758193 0.0 0.0 0.0 0.0 0.0 0.0 0.0 0.0 0.0 0.0 0.0 0.0 0.0 0.0 0.0 0.0 0.0 0.0 0.0 0.0 0.0 0.0 0.0 0.0107838217385922 0.015523227120487718 0.0 0.0 0.0 0.0 0.0 0.0 0.0 0.0 0.0 0.0 0.0 0.0 0.0 0.00823695315088686 0.0 0.0 0.0 0.0 0.0 0.0 0.01238361108584348 0.0 0.0 0.0 0.0 0.0 0.0 0.0 0.0 0.0 0.0 0.0 0.0 0.0 0.0 0.0 0.0 0.0 0.0 0.0 0.0 0.0 0.0 0.0 0.0 0.0 0.0 0.014026992253238757 0.0 0.0 0.0 0.0 0.0 0.0 0.0 0.0 0.013246087740903604 0.0 0.0 0.0 0.0 0.0 0.0 0.0 0.0 0.0 0.0 0.0 0.0 0.0 0.0 0.0 0.0 0.0 0.0 0.0 0.009659559245964946 0.0 0.0 0.017063867491168283 0.0 0.0 0.0 0.0 0.0 0.0 0.0 0.0 0.0 0.0 0.0 0.0 0.0 0.0 0.0 0.0 0.0 0.008258326759050675 0.0 0.0 0.0 0.0 0.0 0.0 0.0 0.0 0.0 0.0 0.0 0.0 0.0 0.0 0.0 0.0 0.007944334213205227 0.0 0.0 0.0 0.0 0.0 0.0 0.0 0.0 0.0 0.0 0.011325252925126155 0.0 0.0 0.0 0.0 0.0 0.0 0.0 0.0 0.0 
